{"learner":{"attributes":{"scikit_learn":"{\"_estimator_type\": \"classifier\"}"},"feature_names":[],"feature_types":[],"gradient_booster":{"model":{"gbtree_model_param":{"num_parallel_tree":"1","num_trees":"200"},"iteration_indptr":[0,1,2,3,4,5,6,7,8,9,10,11,12,13,14,15,16,17,18,19,20,21,22,23,24,25,26,27,28,29,30,31,32,33,34,35,36,37,38,39,40,41,42,43,44,45,46,47,48,49,50,51,52,53,54,55,56,57,58,59,60,61,62,63,64,65,66,67,68,69,70,71,72,73,74,75,76,77,78,79,80,81,82,83,84,85,86,87,88,89,90,91,92,93,94,95,96,97,98,99,100,101,102,103,104,105,106,107,108,109,110,111,112,113,114,115,116,117,118,119,120,121,122,123,124,125,126,127,128,129,130,131,132,133,134,135,136,137,138,139,140,141,142,143,144,145,146,147,148,149,150,151,152,153,154,155,156,157,158,159,160,161,162,163,164,165,166,167,168,169,170,171,172,173,174,175,176,177,178,179,180,181,182,183,184,185,186,187,188,189,190,191,192,193,194,195,196,197,198,199,200],"tree_info":[0,0,0,0,0,0,0,0,0,0,0,0,0,0,0,0,0,0,0,0,0,0,0,0,0,0,0,0,0,0,0,0,0,0,0,0,0,0,0,0,0,0,0,0,0,0,0,0,0,0,0,0,0,0,0,0,0,0,0,0,0,0,0,0,0,0,0,0,0,0,0,0,0,0,0,0,0,0,0,0,0,0,0,0,0,0,0,0,0,0,0,0,0,0,0,0,0,0,0,0,0,0,0,0,0,0,0,0,0,0,0,0,0,0,0,0,0,0,0,0,0,0,0,0,0,0,0,0,0,0,0,0,0,0,0,0,0,0,0,0,0,0,0,0,0,0,0,0,0,0,0,0,0,0,0,0,0,0,0,0,0,0,0,0,0,0,0,0,0,0,0,0,0,0,0,0,0,0,0,0,0,0,0,0,0,0,0,0,0,0,0,0,0,0,0,0,0,0,0,0],"trees":[{"base_weights":[7.0523205E-3,-1.3170505E0,9.254598E-1,-1.5325224E0,2.571977E-1,1.8074361E0,-1.726275E0,-1.7068323E0,-5.300353E-1,8.965517E-1,-1.9327731E-1,1.2931563E0,1.9423599E0,-1.9889426E-1,1.9245283E-1,1.20000005E-1,-1.7228465E-1,1.9607843E-1,-1.9125684E-1,1.7097792E-1,-1.9139785E-1,1.7882353E-1,-1.9097744E-1,1.6835165E-1,1.9764487E-1],"categories":[],"categories_nodes":[],"categories_segments":[],"categories_sizes":[],"default_left":[0,0,0,0,0,0,0,0,0,0,0,0,0,0,0,0,0,0,0,0,0,0,0,0,0],"id":0,"left_children":[1,3,5,7,9,11,13,15,17,19,-1,21,23,-1,-1,-1,-1,-1,-1,-1,-1,-1,-1,-1,-1],"loss_changes":[3.191264E3,3.649563E2,3.6270396E3,1.6431519E2,1.8410454E2,7.8204834E1,3.7518018E2,3.9540527E1,4.9102524E2,2.352609E2,0E0,3.9151614E2,4.7858887E0,0E0,0E0,0E0,0E0,0E0,0E0,0E0,0E0,0E0,0E0,0E0,0E0],"parents":[2147483647,0,0,1,1,2,2,3,3,4,4,5,5,6,6,7,7,8,8,9,9,11,11,12,12],"right_children":[2,4,6,8,10,12,14,16,18,20,-1,22,24,-1,-1,-1,-1,-1,-1,-1,-1,-1,-1,-1,-1],"split_conditions":[5.524748E4,4.13E2,2.0864E2,1E0,5.65105E4,1.5592642E5,7.0313544E5,7E0,5.56614E3,1E0,-1.9327731E-1,1.575792E5,2.3794362E5,-1.9889426E-1,1.9245283E-1,1.20000005E-1,-1.7228465E-1,1.9607843E-1,-1.9125684E-1,1.7097792E-1,-1.9139785E-1,1.7882353E-1,-1.9097744E-1,1.6835165E-1,1.9764487E-1],"split_indices":[2,0,3,8,1,2,1,0,5,9,0,1,2,0,0,0,0,0,0,0,0,0,0,0,0],"split_type":[0,0,0,0,0,0,0,0,0,0,0,0,0,0,0,0,0,0,0,0,0,0,0,0,0],"sum_hessian":[2.62225E3,1.07375E3,1.5485E3,9.445E2,1.2925E2,1.16225E3,3.8625E2,8.04E2,1.405E2,1.005E2,2.875E1,2.4375E2,9.185E2,3.6075E2,2.55E1,4E0,8E2,5E1,9.05E1,7.825E1,2.225E1,2.115E2,3.225E1,1.1275E2,8.0575E2],"tree_param":{"num_deleted":"0","num_feature":"12","num_nodes":"25","size_leaf_vector":"1"}},{"base_weights":[-1.9674027E-2,-1.2060846E0,8.21935E-1,-7.320225E-1,-1.7988826E0,1.6462246E0,-1.586283E0,5.487082E-1,-1.8351471E-1,-3.6254637E-2,-1.8048559E-1,1.163158E0,1.7663914E0,-1.806419E0,1.7505418E-1,-1.3557503E-1,1.1751824E-1,1.5963641E-1,-1.7326711E-1,1.5500365E-1,1.8039136E-1,-1.811835E-1,-9.14095E-2],"categories":[],"categories_nodes":[],"categories_segments":[],"categories_sizes":[],"default_left":[0,0,0,0,0,0,0,0,0,0,0,0,0,0,0,0,0,0,0,0,0,0,0],"id":1,"left_children":[1,3,5,7,9,11,13,15,-1,-1,-1,17,19,21,-1,-1,-1,-1,-1,-1,-1,-1,-1],"loss_changes":[2.5947395E3,3.017411E2,3.0204136E3,8.4996423E2,3.4510498E0,6.3718506E1,2.8829706E2,3.3427078E2,0E0,0E0,0E0,2.8959543E2,4.5544434E0,1.060791E-1,0E0,0E0,0E0,0E0,0E0,0E0,0E0,0E0,0E0],"parents":[2147483647,0,0,1,1,2,2,3,3,4,4,5,5,6,6,7,7,11,11,12,12,13,13],"right_children":[2,4,6,8,10,12,14,16,-1,-1,-1,18,20,22,-1,-1,-1,-1,-1,-1,-1,-1,-1],"split_conditions":[5.524748E4,5.65105E4,2.0864E2,1E0,9E0,1.5592642E5,7.0313544E5,9.37E2,-1.8351471E-1,-3.6254637E-2,-1.8048559E-1,1.575792E5,2.645247E5,1E0,1.7505418E-1,-1.3557503E-1,1.1751824E-1,1.5963641E-1,-1.7326711E-1,1.5500365E-1,1.8039136E-1,-1.811835E-1,-9.14095E-2],"split_indices":[2,1,3,9,0,2,1,2,0,0,0,1,2,8,0,0,0,0,0,0,0,0,0],"split_type":[0,0,0,0,0,0,0,0,0,0,0,0,0,0,0,0,0,0,0,0,0,0,0],"sum_hessian":[2.5966604E3,1.0774098E3,1.5192505E3,5.9990173E2,4.7750812E2,1.1320773E3,3.8717325E2,2.7783597E2,3.2206577E2,2.233055E0,4.7527505E2,2.2764224E2,9.0443506E2,3.636418E2,2.3531437E1,6.848375E1,2.0935222E2,1.9840959E2,2.9232645E1,1.3992546E2,7.645096E2,3.6042374E2,3.218069E0],"tree_param":{"num_deleted":"0","num_feature":"12","num_nodes":"23","size_leaf_vector":"1"}},{"base_weights":[-1.0005238E-2,-1.1288733E0,7.604127E-1,-1.3077044E0,1.663772E-1,1.5095822E0,-1.4614183E0,-1.4525911E0,-4.296582E-1,-1.3424529E0,7.0818967E-1,1.0601115E0,1.6273314E0,-1.6790691E-1,1.3171804E0,-1.7065628E-1,-1.2103566E-1,1.7017584E-1,-1.5952133E-1,-1.4685492E-1,1.09163485E-1,1.1087569E-1,-1.5725301E-1,1.5743634E-1,3.423516E-2,1.457216E-1,1.6728108E-1,1.6382949E-1,-1.0923781E-1],"categories":[],"categories_nodes":[],"categories_segments":[],"categories_sizes":[],"default_left":[0,0,0,0,0,0,0,0,0,0,0,0,0,0,0,0,0,0,0,0,0,0,0,0,0,0,0,0,0],"id":2,"left_children":[1,3,5,7,9,11,13,15,17,19,21,23,25,-1,27,-1,-1,-1,-1,-1,-1,-1,-1,-1,-1,-1,-1,-1,-1],"loss_changes":[2.2058545E3,2.4192798E2,2.5247925E3,1.1603821E2,1.051686E2,5.8283203E1,2.3362872E2,4.633423E1,3.289185E2,1.2047455E1,8.8035675E1,8.739871E1,4.4992676E0,0E0,2.3730679E1,0E0,0E0,0E0,0E0,0E0,0E0,0E0,0E0,0E0,0E0,0E0,0E0,0E0,0E0],"parents":[2147483647,0,0,1,1,2,2,3,3,4,4,5,5,6,6,7,7,8,8,9,9,10,10,11,11,12,12,14,14],"right_children":[2,4,6,8,10,12,14,16,18,20,22,24,26,-1,28,-1,-1,-1,-1,-1,-1,-1,-1,-1,-1,-1,-1,-1,-1],"split_conditions":[5.524748E4,4.06E2,2.0864E2,1E0,7.42E2,1.5592642E5,1E0,1E0,5.56614E3,6.94E2,1E0,1.7161492E5,3.3066503E5,-1.6790691E-1,9.83E2,-1.7065628E-1,-1.2103566E-1,1.7017584E-1,-1.5952133E-1,-1.4685492E-1,1.09163485E-1,1.1087569E-1,-1.5725301E-1,1.5743634E-1,3.423516E-2,1.457216E-1,1.6728108E-1,1.6382949E-1,-1.0923781E-1],"split_indices":[2,0,3,8,2,2,8,7,5,0,9,5,2,0,4,0,0,0,0,0,0,0,0,0,0,0,0,0,0],"split_type":[0,0,0,0,0,0,0,0,0,0,0,0,0,0,0,0,0,0,0,0,0,0,0,0,0,0,0,0,0],"sum_hessian":[2.557012E3,1.0425151E3,1.5144967E3,9.16032E2,1.26483185E2,1.13284E3,3.8165677E2,7.85725E2,1.30307E2,3.302844E1,9.345474E1,2.372429E2,8.9559705E2,3.5429977E2,2.7356985E1,3.8061868E2,4.051063E2,4.590388E1,8.440312E1,3.1778831E1,1.2496084E0,7.993029E1,1.3524455E1,1.3752048E2,9.972242E1,1.95895E2,6.99702E2,2.4422377E1,2.9346094E0],"tree_param":{"num_deleted":"0","num_feature":"12","num_nodes":"29","size_leaf_vector":"1"}},{"base_weights":[4.4611855E-3,4.2357963E-1,-1.4520946E0,6.7288893E-1,-1.5847729E-1,-1.5917356E-1,1.1265212E0,1.320628E0,-7.190189E-2,1.496227E0,-1.1390257E-1,9.36351E-2,1.5231507E-1,-4.610888E-2,1.1544328E-1,4.6405844E-2,1.527581E-1],"categories":[],"categories_nodes":[],"categories_segments":[],"categories_sizes":[],"default_left":[0,0,0,0,0,0,0,0,0,0,0,0,0,0,0,0,0],"id":3,"left_children":[1,3,5,7,-1,-1,9,11,13,15,-1,-1,-1,-1,-1,-1,-1],"loss_changes":[1.505922E3,9.6021277E2,2.002738E2,8.225285E2,0E0,0E0,2.5912289E1,6.953784E1,3.794529E2,1.0923004E-1,0E0,0E0,0E0,0E0,0E0,0E0,0E0],"parents":[2147483647,0,0,1,1,2,2,3,3,6,6,7,7,8,8,9,9],"right_children":[2,4,6,8,-1,-1,10,12,14,16,-1,-1,-1,-1,-1,-1,-1],"split_conditions":[2.0864E2,1E0,1E0,4.783381E4,-1.5847729E-1,-1.5917356E-1,9.83E2,1E0,4.06E2,5.0785534E5,-1.1390257E-1,9.36351E-2,1.5231507E-1,-4.610888E-2,1.1544328E-1,4.6405844E-2,1.527581E-1],"split_indices":[3,9,8,4,0,0,4,8,0,3,0,0,0,0,0,0,0],"split_type":[0,0,0,0,0,0,0,0,0,0,0,0,0,0,0,0,0],"sum_hessian":[2.4648188E3,1.914607E3,5.502118E2,1.7037721E3,2.108349E2,5.2230963E2,2.790217E1,9.108443E2,7.9292786E2,2.4279644E1,3.6225266E0,3.163011E2,5.945432E2,6.023814E2,1.9054643E2,1.1816162E0,2.3098028E1],"tree_param":{"num_deleted":"0","num_feature":"12","num_nodes":"17","size_leaf_vector":"1"}},{"base_weights":[4.966468E-3,-9.9837434E-1,6.9867414E-1,-1.4370167E0,-5.8761567E-1,1.0296295E0,-1.485379E-1,-1.4453232E0,9.730264E-2,-8.924391E-1,6.965437E-1,5.5766475E-1,1.3718274E0,-1.6722793E-2,-1.4540151E-1,-1.514778E-1,-3.3019207E-2,1.5158692E-1,-1.5036461E-1,1.9641861E-2,1.341417E-1,1.1776277E-1,1.5134086E-1],"categories":[],"categories_nodes":[],"categories_segments":[],"categories_sizes":[],"default_left":[0,0,0,0,0,0,0,0,0,0,0,0,0,0,0,0,0,0,0,0,0,0,0],"id":4,"left_children":[1,3,5,7,9,11,-1,13,-1,15,17,19,21,-1,-1,-1,-1,-1,-1,-1,-1,-1,-1],"loss_changes":[1.6735796E3,1.7624878E2,1.0290886E3,1.0907715E1,1.99971E2,1.9871204E2,0E0,5.015747E0,0E0,1.4366605E2,1.7940552E2,1.4719208E2,1.788501E1,0E0,0E0,0E0,0E0,0E0,0E0,0E0,0E0,0E0,0E0],"parents":[2147483647,0,0,1,1,2,2,3,3,4,4,5,5,7,7,9,9,10,10,11,11,12,12],"right_children":[2,4,6,8,10,12,-1,14,-1,16,18,20,22,-1,-1,-1,-1,-1,-1,-1,-1,-1,-1],"split_conditions":[5.3558E4,1.514E3,1E0,6.94E2,1E0,3.221139E5,-1.485379E-1,9E0,9.730264E-2,1E0,1.0207305E5,4.09E2,9.3951806E5,-1.6722793E-2,-1.4540151E-1,-1.514778E-1,-3.3019207E-2,1.5158692E-1,-1.5036461E-1,1.9641861E-2,1.341417E-1,1.1776277E-1,1.5134086E-1],"split_indices":[2,2,10,0,8,2,0,0,0,7,5,0,2,0,0,0,0,0,0,0,0,0,0],"split_type":[0,0,0,0,0,0,0,0,0,0,0,0,0,0,0,0,0,0,0,0,0,0,0],"sum_hessian":[2.402479E3,9.8188916E2,1.4205898E3,4.7361984E2,5.082693E2,1.2341105E3,1.8647943E2,4.72392E2,1.2278587E0,4.1101166E2,9.725762E1,5.1980994E2,7.1430054E2,3.3275433E0,4.6906445E2,1.9427684E2,2.1673483E2,7.109404E1,2.6163576E1,3.5666632E2,1.631436E2,3.051119E2,4.091886E2],"tree_param":{"num_deleted":"0","num_feature":"12","num_nodes":"23","size_leaf_vector":"1"}},{"base_weights":[1.0397917E-3,-9.416434E-1,6.406747E-1,-1.1076728E0,2.023896E-1,1.2940562E0,-1.2925398E0,-1.2326831E0,-3.5183144E-1,5.6343704E-1,-1.3704005E-1,7.863978E-1,1.384635E0,-1.4602034E-1,9.835692E-1,-1.3641104E-1,-9.430435E-2,1.4400923E-1,-1.4153378E-1,1.2896447E-1,-1.9411769E-2,1.4182837E-1,8.538084E-3,1.1746857E-1,1.4337456E-1,1.3767266E-1,-1.2878433E-1],"categories":[],"categories_nodes":[],"categories_segments":[],"categories_sizes":[],"default_left":[0,0,0,0,0,0,0,0,0,0,0,0,0,0,0,0,0,0,0,0,0,0,0,0,0,0,0],"id":5,"left_children":[1,3,5,7,9,11,13,15,17,19,-1,21,23,-1,25,-1,-1,-1,-1,-1,-1,-1,-1,-1,-1,-1,-1],"loss_changes":[1.3918523E3,1.7746246E2,1.7387283E3,7.657477E1,6.8404724E1,4.619641E1,1.3419452E2,2.5319946E1,2.2513223E2,5.3930294E1,0E0,6.987254E1,7.2998047E0,0E0,2.3620869E1,0E0,0E0,0E0,0E0,0E0,0E0,0E0,0E0,0E0,0E0,0E0,0E0],"parents":[2147483647,0,0,1,1,2,2,3,3,4,4,5,5,6,6,7,7,8,8,9,9,11,11,12,12,14,14],"right_children":[2,4,6,8,10,12,14,16,18,20,-1,22,24,-1,26,-1,-1,-1,-1,-1,-1,-1,-1,-1,-1,-1,-1],"split_conditions":[5.2102E4,4.13E2,2.0864E2,1E0,1E0,1.1641958E5,1E0,1.2461E4,5.56614E3,5.255721E4,-1.3704005E-1,1.1691872E5,2.3794362E5,-1.4602034E-1,5.56614E3,-1.3641104E-1,-9.430435E-2,1.4400923E-1,-1.4153378E-1,1.2896447E-1,-1.9411769E-2,1.4182837E-1,8.538084E-3,1.1746857E-1,1.4337456E-1,1.3767266E-1,-1.2878433E-1],"split_indices":[2,0,3,8,9,2,8,2,5,5,0,5,2,0,5,0,0,0,0,0,0,0,0,0,0,0,0],"split_type":[0,0,0,0,0,0,0,0,0,0,0,0,0,0,0,0,0,0,0,0,0,0,0,0,0,0,0],"sum_hessian":[2.3063152E3,9.32112E2,1.3742031E3,8.1400946E2,1.1810252E2,1.0273226E3,3.4688046E2,6.9794415E2,1.1606534E2,9.657473E1,2.1527798E1,1.5701245E2,8.7031024E2,3.234154E2,2.3465069E1,4.7754355E2,2.2040059E2,4.309671E1,7.2968636E1,4.8948914E1,4.7625816E1,8.203983E1,7.497262E1,1.6971103E2,7.005992E2,2.0338568E1,3.126501E0],"tree_param":{"num_deleted":"0","num_feature":"12","num_nodes":"27","size_leaf_vector":"1"}},{"base_weights":[-1.0180157E-2,2.6112655E-1,-1.3983144E-1,9.7692066E-1,-3.8706252E-1,1.086499E0,-1.3720998E-1,-1.403247E-1,2.6115654E-2,1.3965596E-1,5.4319184E-2,-3.0694311E-2,1.0831442E-1],"categories":[],"categories_nodes":[],"categories_segments":[],"categories_sizes":[],"default_left":[0,0,0,0,0,0,0,0,0,0,0,0,0],"id":6,"left_children":[1,3,-1,5,7,9,-1,-1,11,-1,-1,-1,-1],"loss_changes":[8.3710114E2,8.6306433E2,0E0,2.2900378E2,4.100242E2,1.4159644E2,0E0,0E0,2.4507655E2,0E0,0E0,0E0,0E0],"parents":[2147483647,0,0,1,1,3,3,4,4,5,5,8,8],"right_children":[2,4,-1,6,8,10,-1,-1,12,-1,-1,-1,-1],"split_conditions":[1E0,4.513812E4,-1.3983144E-1,1E0,1E0,9.21719E3,-1.3720998E-1,-1.403247E-1,4.06E2,1.3965596E-1,5.4319184E-2,-3.0694311E-2,1.0831442E-1],"split_indices":[9,4,0,10,7,5,0,0,0,0,0,0,0],"split_type":[0,0,0,0,0,0,0,0,0,0,0,0,0],"sum_hessian":[2.2207566E3,1.8583579E3,3.6239862E2,8.8288367E2,9.754742E2,8.440476E2,3.883609E1,2.812824E2,6.941918E2,5.363735E2,3.0767413E2,5.284061E2,1.6578569E2],"tree_param":{"num_deleted":"0","num_feature":"12","num_nodes":"13","size_leaf_vector":"1"}},{"base_weights":[-1.1710185E-2,-8.692289E-1,6.0292834E-1,-4.1051367E-1,-1.4144602E0,8.699954E-1,-1.3105418E-1,5.1017743E-1,-1.3284732E-1,-4.4553574E-2,-1.4183583E0,-1.3748871E-1,1.1169511E0,-1.18647516E-1,9.1569565E-2,-1.2532859E-1,-1.4468461E-1,8.415301E-2,1.2951994E-1],"categories":[],"categories_nodes":[],"categories_segments":[],"categories_sizes":[],"default_left":[0,0,0,0,0,0,0,0,0,0,0,0,0,0,0,0,0,0,0],"id":7,"left_children":[1,3,5,7,9,11,-1,13,-1,-1,15,-1,17,-1,-1,-1,-1,-1,-1],"loss_changes":[1.1183501E3,2.2098438E2,6.3275116E2,4.084848E2,8.952637E-1,6.031513E2,0E0,1.6733029E2,0E0,0E0,7.849121E-2,0E0,4.6932983E1,0E0,0E0,0E0,0E0,0E0,0E0],"parents":[2147483647,0,0,1,1,2,2,3,3,4,4,5,5,7,7,10,10,12,12],"right_children":[2,4,6,8,10,12,-1,14,-1,-1,16,-1,18,-1,-1,-1,-1,-1,-1],"split_conditions":[5.524748E4,5.65105E4,1E0,1E0,9E0,5.458429E4,-1.3105418E-1,1.09E2,-1.3284732E-1,-4.4553574E-2,4.8E1,-1.3748871E-1,3.221139E5,-1.18647516E-1,9.1569565E-2,-1.2532859E-1,-1.4468461E-1,8.415301E-2,1.2951994E-1],"split_indices":[2,1,10,9,0,1,0,2,0,0,0,0,2,0,0,0,0,0,0],"split_type":[0,0,0,0,0,0,0,0,0,0,0,0,0,0,0,0,0,0,0],"sum_hessian":[2.119854E3,8.848847E2,1.2349694E3,4.8152222E2,4.0336246E2,1.0841918E3,1.507776E2,2.406252E2,2.4089702E2,2.078269E0,4.012842E2,1.06997086E2,9.771947E2,4.6046185E1,1.9457901E2,6.568223E1,3.3560196E2,3.8619113E2,5.9100354E2],"tree_param":{"num_deleted":"0","num_feature":"12","num_nodes":"19","size_leaf_vector":"1"}},{"base_weights":[-5.60288E-3,-8.313861E-1,5.779507E-1,-3.895979E-1,-1.357416E-1,1.1482381E0,-1.167695E0,4.926937E-1,-1.2867028E-1,7.37481E-1,1.2673497E0,-1.3208608E-1,1.2264361E-1,-1.08482264E-1,8.5228376E-2,1.18991494E-1,-1.7524686E-1,1.0717793E-1,1.3051641E-1],"categories":[],"categories_nodes":[],"categories_segments":[],"categories_sizes":[],"default_left":[0,0,0,0,0,0,0,0,0,0,0,0,0,0,0,0,0,0,0],"id":8,"left_children":[1,3,5,7,-1,9,11,13,-1,15,17,-1,-1,-1,-1,-1,-1,-1,-1],"loss_changes":[9.772316E2,1.9460828E2,1.184257E3,3.6297705E2,0E0,4.2910034E1,1.0909711E2,1.3225797E2,0E0,2.3171933E2,3.7283936E0,0E0,0E0,0E0,0E0,0E0,0E0,0E0,0E0],"parents":[2147483647,0,0,1,1,2,2,3,3,5,5,6,6,7,7,9,9,10,10],"right_children":[2,4,6,8,-1,10,12,14,-1,16,18,-1,-1,-1,-1,-1,-1,-1,-1],"split_conditions":[5.3558E4,5.458429E4,2.0864E2,1E0,-1.357416E-1,1.5592642E5,7.0313544E5,1.09E2,-1.2867028E-1,1.575792E5,2.645247E5,-1.3208608E-1,1.2264361E-1,-1.08482264E-1,8.5228376E-2,1.18991494E-1,-1.7524686E-1,1.0717793E-1,1.3051641E-1],"split_indices":[2,1,3,9,0,2,1,2,0,1,2,0,0,0,0,0,0,0,0],"split_type":[0,0,0,0,0,0,0,0,0,0,0,0,0,0,0,0,0,0,0],"sum_hessian":[2.0259226E3,8.3868286E2,1.1872397E3,4.5678824E2,3.818946E2,8.951456E2,2.920941E2,2.3052275E2,2.2626549E2,2.0284055E2,6.923051E2,2.749522E2,1.71419E1,4.2418137E1,1.8810461E2,1.7209271E2,3.0747828E1,1.1692578E2,5.7537933E2],"tree_param":{"num_deleted":"0","num_feature":"12","num_nodes":"19","size_leaf_vector":"1"}},{"base_weights":[-7.1714087E-3,-8.787121E-1,5.00346E-1,-3.9739788E-1,-1.315497E0,1.0560727E0,-1.1450669E0,-6.501653E-1,1.1997219E0,-1.0403132E0,-1.3558877E-1,5.498882E-1,1.2004749E0,-1.2866452E-1,1.193194E-1,-1.2667957E-1,5.987798E-2,1.2785779E-1,-8.0838576E-2,-6.003235E-2,-1.1742719E-1,1.2269093E-1,-1.728739E-1,9.876432E-2,1.2671742E-1],"categories":[],"categories_nodes":[],"categories_segments":[],"categories_sizes":[],"default_left":[0,0,0,0,0,0,0,0,0,0,0,0,0,0,0,0,0,0,0,0,0,0,0,0,0],"id":9,"left_children":[1,3,5,7,9,11,13,15,17,19,-1,21,23,-1,-1,-1,-1,-1,-1,-1,-1,-1,-1,-1,-1],"loss_changes":[8.458983E2,1.4743658E2,1.1063665E3,1.365292E2,2.685669E0,6.5416504E1,1.0271033E2,2.2484116E2,8.36496E0,2.3284454E0,0E0,3.1450214E2,8.720886E0,0E0,0E0,0E0,0E0,0E0,0E0,0E0,0E0,0E0,0E0,0E0,0E0],"parents":[2147483647,0,0,1,1,2,2,3,3,4,4,5,5,6,6,7,7,8,8,9,9,11,11,12,12],"right_children":[2,4,6,8,10,12,14,16,18,20,-1,22,24,-1,-1,-1,-1,-1,-1,-1,-1,-1,-1,-1,-1],"split_conditions":[3.6792E4,3.713363E4,2.0864E2,1E0,4E1,1.1641958E5,7.0313544E5,1E0,9.83E2,4.513812E4,-1.3558877E-1,1.1679395E5,2.645247E5,-1.2866452E-1,1.193194E-1,-1.2667957E-1,5.987798E-2,1.2785779E-1,-8.0838576E-2,-6.003235E-2,-1.1742719E-1,1.2269093E-1,-1.728739E-1,9.876432E-2,1.2671742E-1],"split_indices":[2,1,3,8,0,2,1,7,4,4,0,1,2,0,0,0,0,0,0,0,0,0,0,0,0],"split_type":[0,0,0,0,0,0,0,0,0,0,0,0,0,0,0,0,0,0,0,0,0,0,0,0,0],"sum_hessian":[1.9104094E3,7.027948E2,1.2076146E3,3.3526263E2,3.6753217E2,9.0299316E2,3.0462146E2,2.8996445E2,4.5298183E1,5.0465294E1,3.1706686E2,2.0149269E2,7.015005E2,2.8765414E2,1.6967304E1,1.9411267E2,9.5851776E1,4.3936153E1,1.3620291E0,1.3057877E1,3.7407417E1,1.5569458E2,4.5798103E1,1.7115771E2,5.303428E2],"tree_param":{"num_deleted":"0","num_feature":"12","num_nodes":"25","size_leaf_vector":"1"}},{"base_weights":[-9.6988E-3,-8.604092E-1,4.661491E-1,-3.8362476E-1,-1.2656761E0,9.999819E-1,-1.1210945E0,6.1616623E-1,-1.2182134E-1,-1.0523012E0,-1.3026324E-1,5.814055E-1,1.1834071E0,-1.25441E-1,1.1594953E-1,8.451059E-2,-1.4837626E-1,-6.391435E-2,-1.16018E-1,1.01424314E-1,-1.500265E-1,1.0145738E-1,1.2396403E-1],"categories":[],"categories_nodes":[],"categories_segments":[],"categories_sizes":[],"default_left":[0,0,0,0,0,0,0,0,0,0,0,0,0,0,0,0,0,0,0,0,0,0,0],"id":10,"left_children":[1,3,5,7,9,11,13,15,-1,17,-1,19,21,-1,-1,-1,-1,-1,-1,-1,-1,-1,-1],"loss_changes":[7.238769E2,1.23456085E2,9.7280273E2,2.478617E2,1.3599243E0,6.5239075E1,8.9348755E1,6.6349976E1,0E0,1.7689781E0,0E0,2.3903015E2,4.4015503E0,0E0,0E0,0E0,0E0,0E0,0E0,0E0,0E0,0E0,0E0],"parents":[2147483647,0,0,1,1,2,2,3,3,4,4,5,5,6,6,7,7,9,9,11,11,12,12],"right_children":[2,4,6,8,10,12,14,16,-1,18,-1,20,22,-1,-1,-1,-1,-1,-1,-1,-1,-1,-1],"split_conditions":[3.2527E4,3.2872E4,2.0864E2,1E0,4.8E1,1.5592642E5,7.0313544E5,2.0864E2,-1.2182134E-1,4.513812E4,-1.3026324E-1,1.575792E5,3.4924338E5,-1.25441E-1,1.1594953E-1,8.451059E-2,-1.4837626E-1,-6.391435E-2,-1.16018E-1,1.01424314E-1,-1.500265E-1,1.0145738E-1,1.2396403E-1],"split_indices":[2,1,3,9,0,2,1,3,0,4,0,1,2,0,0,0,0,0,0,0,0,0,0],"split_type":[0,0,0,0,0,0,0,0,0,0,0,0,0,0,0,0,0,0,0,0,0,0,0],"sum_hessian":[1.786204E3,6.404369E2,1.1457671E3,2.9514923E2,3.4528766E2,8.576772E2,2.8808994E2,1.3440326E2,1.6074597E2,5.532582E1,2.8996182E2,2.6259802E2,5.9507916E2,2.726044E2,1.5485549E1,1.2172955E2,1.2673711E1,1.288874E1,4.243708E1,2.1781992E2,4.4778095E1,1.5343925E2,4.416399E2],"tree_param":{"num_deleted":"0","num_feature":"12","num_nodes":"23","size_leaf_vector":"1"}},{"base_weights":[-2.5359578E-3,-8.214732E-1,4.5084953E-1,-9.361742E-1,2.1184202E-2,9.755883E-1,-1.096778E0,-4.393357E-1,-1.0659944E0,-8.686589E-1,3.880058E-1,5.77925E-1,1.1481507E0,-1.22555844E-1,7.0652467E-1,-5.9083212E-2,8.974151E-2,-1.1836578E-1,-8.7731E-2,-1.1067517E-1,-9.238551E-3,5.864895E-2,-1.07121505E-1,1.17672734E-1,6.2845214E-3,8.880228E-2,1.1890717E-1,-9.062471E-2,1.1066168E-1],"categories":[],"categories_nodes":[],"categories_segments":[],"categories_sizes":[],"default_left":[0,0,0,0,0,0,0,0,0,0,0,0,0,0,0,0,0,0,0,0,0,0,0,0,0,0,0,0,0],"id":11,"left_children":[1,3,5,7,9,11,13,15,17,19,21,23,25,-1,27,-1,-1,-1,-1,-1,-1,-1,-1,-1,-1,-1,-1,-1,-1],"loss_changes":[6.2193494E2,5.771167E1,8.766405E2,3.341986E1,2.3999273E1,5.4624146E1,6.437335E1,2.2916918E1,8.194122E0,3.8657837E0,1.5695591E1,7.5748184E1,4.9142456E0,0E0,1.3173681E1,0E0,0E0,0E0,0E0,0E0,0E0,0E0,0E0,0E0,0E0,0E0,0E0,0E0,0E0],"parents":[2147483647,0,0,1,1,2,2,3,3,4,4,5,5,6,6,7,7,8,8,9,9,10,10,11,11,12,12,14,14],"right_children":[2,4,6,8,10,12,14,16,18,20,22,24,26,-1,28,-1,-1,-1,-1,-1,-1,-1,-1,-1,-1,-1,-1,-1,-1],"split_conditions":[3.2527E4,4.13E2,2.0864E2,1.29E2,3.07E2,1.5592642E5,1E0,5.4E1,2.528E3,6.46E2,2.0864E2,1.1691872E5,2.3794362E5,-1.22555844E-1,7.1704675E5,-5.9083212E-2,8.974151E-2,-1.1836578E-1,-8.7731E-2,-1.1067517E-1,-9.238551E-3,5.864895E-2,-1.07121505E-1,1.17672734E-1,6.2845214E-3,8.880228E-2,1.1890717E-1,-9.062471E-2,1.1066168E-1],"split_indices":[2,0,3,0,2,2,8,0,2,0,3,5,2,0,2,0,0,0,0,0,0,0,0,0,0,0,0,0,0],"split_type":[0,0,0,0,0,0,0,0,0,0,0,0,0,0,0,0,0,0,0,0,0,0,0,0,0,0,0,0,0],"sum_hessian":[1.6730483E3,5.9589264E2,1.0771558E3,5.244011E2,7.149153E1,8.046878E2,2.7246793E2,1.0954451E2,4.1485663E2,2.0469105E1,5.102243E1,2.4483174E2,5.598561E2,2.5460597E2,1.7861958E1,9.8894615E1,1.0649899E1,2.5226888E2,1.6258774E2,1.5338784E1,5.1303205E0,4.5439777E1,5.5826526E0,1.1262076E2,1.3221098E2,7.9185776E1,4.806703E2,3.2989178E0,1.456304E1],"tree_param":{"num_deleted":"0","num_feature":"12","num_nodes":"29","size_leaf_vector":"1"}},{"base_weights":[6.1194845E-3,-6.488384E-1,5.2551097E-1,-1.0520576E0,-3.238336E-1,1.0025108E0,-1.0347261E0,-4.139999E-1,-1.0915108E0,1.9661881E-2,-1.2325137E-1,7.02688E-1,1.1555591E0,-1.1917468E-1,7.511098E-1,-6.843555E-2,5.5904686E-2,-1.1018745E-1,8.419854E-2,6.709242E-2,-4.781205E-2,1.0798414E-1,6.4764307E-3,9.771281E-2,1.18408315E-1,-8.1445776E-2,1.0891455E-1],"categories":[],"categories_nodes":[],"categories_segments":[],"categories_sizes":[],"default_left":[0,0,0,0,0,0,0,0,0,0,0,0,0,0,0,0,0,0,0,0,0,0,0,0,0,0,0],"id":12,"left_children":[1,3,5,7,9,11,13,15,17,19,-1,21,23,-1,25,-1,-1,-1,-1,-1,-1,-1,-1,-1,-1,-1,-1],"loss_changes":[5.3672833E2,9.110803E1,6.559269E2,7.3768616E0,1.210772E2,3.0135742E1,5.8807343E1,5.570552E0,6.7843323E0,9.187975E1,0E0,5.5381264E1,1.107605E0,0E0,1.0044969E1,0E0,0E0,0E0,0E0,0E0,0E0,0E0,0E0,0E0,0E0,0E0,0E0],"parents":[2147483647,0,0,1,1,2,2,3,3,4,4,5,5,6,6,7,7,8,8,9,9,11,11,12,12,14,14],"right_children":[2,4,6,8,10,12,14,16,18,20,-1,22,24,-1,26,-1,-1,-1,-1,-1,-1,-1,-1,-1,-1,-1,-1],"split_conditions":[6.1772E4,1.514E3,2.0864E2,1.6E1,2.0864E2,2.3794362E5,1E0,1.09E2,6.94E2,7.444711E4,-1.2325137E-1,3.115284E5,3.4924338E5,-1.1917468E-1,3.892277E5,-6.843555E-2,5.5904686E-2,-1.1018745E-1,8.419854E-2,6.709242E-2,-4.781205E-2,1.0798414E-1,6.4764307E-3,9.771281E-2,1.18408315E-1,-8.1445776E-2,1.0891455E-1],"split_indices":[2,2,3,0,3,2,8,2,0,5,0,5,2,0,3,0,0,0,0,0,0,0,0,0,0,0,0],"split_type":[0,0,0,0,0,0,0,0,0,0,0,0,0,0,0,0,0,0,0,0,0,0,0,0,0,0,0],"sum_hessian":[1.5757772E3,6.968248E2,8.789524E2,3.0999298E2,3.8683182E2,6.7342773E2,2.0552466E2,1.8720955E1,2.9127203E2,2.8142648E2,1.0540532E2,2.294752E2,4.439525E2,1.8922005E2,1.6304611E1,1.4882597E1,3.8383586E0,2.9014694E2,1.1251004E0,1.2176724E2,1.5965924E2,1.43778E2,8.5697205E1,6.604806E1,3.7790445E2,2.645046E0,1.3659565E1],"tree_param":{"num_deleted":"0","num_feature":"12","num_nodes":"27","size_leaf_vector":"1"}},{"base_weights":[2.7033093E-3,-8.199886E-1,3.8540962E-1,-2.8989005E-1,-1.1744587E0,8.5840225E-1,-1.0675803E0,7.98744E-1,-1.15613095E-1,-9.298931E-1,-1.22010626E-1,4.506399E-1,1.0923487E0,-1.1789467E-1,1.0789949E-1,-5.2214086E-2,1.0761803E-1,-9.8563366E-2,8.4721476E-2,9.083351E-2,-1.4084055E-1,9.083779E-2,1.1586876E-1],"categories":[],"categories_nodes":[],"categories_segments":[],"categories_sizes":[],"default_left":[0,0,0,0,0,0,0,0,0,0,0,0,0,0,0,0,0,0,0,0,0,0,0],"id":13,"left_children":[1,3,5,7,9,11,13,15,-1,17,-1,19,21,-1,-1,-1,-1,-1,-1,-1,-1,-1,-1],"loss_changes":[4.7147366E2,8.8995636E1,7.03303E2,1.8183879E2,2.042511E0,7.3112366E1,6.1380035E1,3.1931843E1,0E0,5.685547E0,0E0,2.4207378E2,4.9226074E0,0E0,0E0,0E0,0E0,0E0,0E0,0E0,0E0,0E0,0E0],"parents":[2147483647,0,0,1,1,2,2,3,3,4,4,5,5,6,6,7,7,9,9,11,11,12,12],"right_children":[2,4,6,8,10,12,14,16,-1,18,-1,20,22,-1,-1,-1,-1,-1,-1,-1,-1,-1,-1],"split_conditions":[2.1673E4,2.1729E4,2.0864E2,1E0,4.8E1,1.5592642E5,7.0313544E5,1.09E2,-1.15613095E-1,9.834175E5,-1.22010626E-1,1.575792E5,3.4924338E5,-1.1789467E-1,1.0789949E-1,-5.2214086E-2,1.0761803E-1,-9.8563366E-2,8.4721476E-2,9.083351E-2,-1.4084055E-1,9.083779E-2,1.1586876E-1],"split_indices":[2,1,3,9,0,2,1,2,0,1,0,1,2,0,0,0,0,0,0,0,0,0,0],"split_type":[0,0,0,0,0,0,0,0,0,0,0,0,0,0,0,0,0,0,0,0,0,0,0],"sum_hessian":[1.495454E3,4.7443442E2,1.0210196E3,1.9084691E2,2.8358752E2,7.705811E2,2.5043848E2,8.4602295E1,1.0624462E2,4.796682E1,2.356207E2,2.8199594E2,4.8858517E2,2.3851488E2,1.1923603E1,1.4532145E1,7.0070145E1,4.693988E1,1.026938E0,2.2669519E2,5.5300735E1,1.333825E2,3.5520267E2],"tree_param":{"num_deleted":"0","num_feature":"12","num_nodes":"23","size_leaf_vector":"1"}},{"base_weights":[-1.0710946E-2,-6.137516E-1,4.827815E-1,-2.1170191E-1,-1.1736871E0,9.274099E-1,-9.950016E-1,4.021375E-1,-1.1430913E-1,-1.1491709E0,-1.9058155E-1,5.762806E-1,1.0990485E0,-1.1426709E0,1.0599275E-1,-9.449544E-2,7.09693E-2,-1.0416422E-1,-1.23582475E-1,8.927508E-2,-1.9222827E-1,8.974994E-2,1.14082515E-1,-1.1473669E-1,-2.6195258E-2],"categories":[],"categories_nodes":[],"categories_segments":[],"categories_sizes":[],"default_left":[0,0,0,0,0,0,0,0,0,0,0,0,0,0,0,0,0,0,0,0,0,0,0,0,0],"id":14,"left_children":[1,3,5,7,9,11,13,15,-1,17,-1,19,21,23,-1,-1,-1,-1,-1,-1,-1,-1,-1,-1,-1],"loss_changes":[4.162535E2,1.4146199E2,5.063637E2,2.1063593E2,2.5280762E0,3.5035492E1,5.5345917E1,9.278008E1,0E0,1.1061401E0,0E0,1.5702972E2,2.3139954E0,3.897705E-1,0E0,0E0,0E0,0E0,0E0,0E0,0E0,0E0,0E0,0E0,0E0],"parents":[2147483647,0,0,1,1,2,2,3,3,4,4,5,5,6,6,7,7,9,9,11,11,12,12,13,13],"right_children":[2,4,6,8,10,12,14,16,-1,18,-1,20,22,24,-1,-1,-1,-1,-1,-1,-1,-1,-1,-1,-1],"split_conditions":[6.1772E4,6.289881E4,2.0864E2,1E0,5.524748E4,2.1940752E5,7.0313544E5,1.09E2,-1.1430913E-1,1.09E2,-1.9058155E-1,2.2245072E5,3.4924338E5,5.3565456E5,1.0599275E-1,-9.449544E-2,7.09693E-2,-1.0416422E-1,-1.23582475E-1,8.927508E-2,-1.9222827E-1,8.974994E-2,1.14082515E-1,-1.1473669E-1,-2.6195258E-2],"split_indices":[2,1,3,9,2,2,1,2,0,2,0,1,2,1,0,0,0,0,0,0,0,0,0,0,0],"split_type":[0,0,0,0,0,0,0,0,0,0,0,0,0,0,0,0,0,0,0,0,0,0,0,0,0],"sum_hessian":[1.3967245E3,6.284833E2,7.6824115E2,3.6661865E2,2.618646E2,5.9084344E2,1.7739774E2,2.2132256E2,1.452961E2,2.5586624E2,5.998358E0,1.954203E2,3.9542313E2,1.659186E2,1.1479142E1,4.0752834E1,1.8056973E2,1.1999072E2,1.3587552E2,1.7402132E2,2.1398993E1,7.1750496E1,3.2367264E2,1.6473747E2,1.1811299E0],"tree_param":{"num_deleted":"0","num_feature":"12","num_nodes":"25","size_leaf_vector":"1"}},{"base_weights":[-2.738184E-3,-2.5730008E-1,8.3843225E-1,-5.080851E-1,8.0913866E-1,1.0054475E0,2.1302927E-1,-6.827708E-1,3.9410323E-1,1.1596204E-1,-1.2022375E0,6.982124E-1,1.0529014E0,8.7855315E-1,-1.3214401E0,-5.2945115E-2,-1.13398306E-1,-9.2764944E-2,6.018382E-2,-1.0913112E-3,-1.3071094E-1,9.386851E-2,2.0582104E-2,1.1333101E-1,9.7494386E-2,1.5367651E-2,1.1234289E-1,-1.8128058E-2,-1.3793431E-1],"categories":[],"categories_nodes":[],"categories_segments":[],"categories_sizes":[],"default_left":[0,0,0,0,0,0,0,0,0,0,0,0,0,0,0,0,0,0,0,0,0,0,0,0,0,0,0,0,0],"id":15,"left_children":[1,3,5,7,9,11,13,15,17,-1,19,21,23,25,27,-1,-1,-1,-1,-1,-1,-1,-1,-1,-1,-1,-1,-1,-1],"loss_changes":[2.8021472E2,2.690859E2,3.1541397E1,1.2854599E2,1.3649716E2,2.7591858E0,6.78943E1,4.659915E1,3.698555E1,0E0,3.6001778E0,3.9551296E0,1.8412781E-1,8.024334E0,1.0813713E0,0E0,0E0,0E0,0E0,0E0,0E0,0E0,0E0,0E0,0E0,0E0,0E0,0E0,0E0],"parents":[2147483647,0,0,1,1,2,2,3,3,4,4,5,5,6,6,7,7,8,8,10,10,11,11,12,12,13,13,14,14],"right_children":[2,4,6,8,10,12,14,16,18,-1,20,22,24,26,28,-1,-1,-1,-1,-1,-1,-1,-1,-1,-1,-1,-1,-1,-1],"split_conditions":[4.7989203E5,1E0,7.161812E5,4.06E2,5.56614E3,6.336107E5,1E0,1E0,5.56614E3,1.1596204E-1,1.9E1,9.83E2,1E0,7.0313544E5,1.3E1,-5.2945115E-2,-1.13398306E-1,-9.2764944E-2,6.018382E-2,-1.0913112E-3,-1.3071094E-1,9.386851E-2,2.0582104E-2,1.1333101E-1,9.7494386E-2,1.5367651E-2,1.1234289E-1,-1.8128058E-2,-1.3793431E-1],"split_indices":[1,8,4,0,5,1,8,9,5,0,0,4,8,1,0,0,0,0,0,0,0,0,0,0,0,0,0,0,0],"split_type":[0,0,0,0,0,0,0,0,0,0,0,0,0,0,0,0,0,0,0,0,0,0,0,0,0,0,0,0,0],"sum_hessian":[1.3066125E3,1.00359155E3,3.0302103E2,8.129426E2,1.9064897E2,2.3867471E2,6.4346306E1,6.812744E2,1.3166817E2,1.6271875E2,2.7930222E1,3.4034607E1,2.046401E2,4.5178936E1,1.916737E1,5.1011374E2,1.7116069E2,1.7412474E1,1.142557E2,2.349088E0,2.5581135E1,2.2257954E1,1.1776655E1,9.407234E1,1.10567764E2,1.1819281E1,3.3359653E1,1.1260086E0,1.804136E1],"tree_param":{"num_deleted":"0","num_feature":"12","num_nodes":"29","size_leaf_vector":"1"}},{"base_weights":[4.2126905E-3,1.8531196E-1,-1.11718036E-1,7.4909973E-1,-2.3370291E-1,1.0206276E0,2.7293488E-1,-1.1907394E0,6.734839E-2,1.1344614E-1,-1.0980322E-1,2.8957233E-3,8.9338265E-2,-7.432083E-2,-1.2057932E-1,-1.6141074E-2,1.0847825E-1],"categories":[],"categories_nodes":[],"categories_segments":[],"categories_sizes":[],"default_left":[0,0,0,0,0,0,0,0,0,0,0,0,0,0,0,0,0],"id":16,"left_children":[1,3,-1,5,7,9,11,13,15,-1,-1,-1,-1,-1,-1,-1,-1],"loss_changes":[2.5176375E2,2.5231306E2,0E0,5.8586166E1,1.7670506E2,7.108542E1,2.5208973E1,9.246826E-2,1.0893421E2,0E0,0E0,0E0,0E0,0E0,0E0,0E0,0E0],"parents":[2147483647,0,0,1,1,3,3,4,4,5,5,6,6,7,7,8,8],"right_children":[2,4,-1,6,8,10,12,14,16,-1,-1,-1,-1,-1,-1,-1,-1],"split_conditions":[1E0,7.44039E3,-1.11718036E-1,9.21719E3,1E0,1E0,5.687529E5,1.4E1,5.687529E5,1.1344614E-1,-1.0980322E-1,2.8957233E-3,8.9338265E-2,-7.432083E-2,-1.2057932E-1,-1.6141074E-2,1.0847825E-1],"split_indices":[9,4,0,5,7,10,1,0,1,0,0,0,0,0,0,0,0],"split_type":[0,0,0,0,0,0,0,0,0,0,0,0,0,0,0,0,0],"sum_hessian":[1.2376864E3,1.0663165E3,1.7136995E2,4.5428488E2,6.120316E2,2.8858115E2,1.6570374E2,1.4574756E2,4.6628406E2,2.7430737E2,1.4273757E1,1.1968635E2,4.6017387E1,6.382174E0,1.3936539E2,3.813769E2,8.490714E1],"tree_param":{"num_deleted":"0","num_feature":"12","num_nodes":"17","size_leaf_vector":"1"}},{"base_weights":[-1.9270643E-3,2.5002545E-1,-1.054029E0,-6.9198984E-1,7.6049894E-1,-1.1368309E0,9.952273E-2,-4.0646136E-2,-1.1010065E0,3.1975272E-1,9.7233164E-1,-1.1400052E-1,-4.311259E-2,8.63162E-2,-1.0884161E-1,-6.999312E-2,-1.1781686E-1,9.325586E-2,-1.4206542E-1,7.5183265E-2,1.09572016E-1],"categories":[],"categories_nodes":[],"categories_segments":[],"categories_sizes":[],"default_left":[0,0,0,0,0,0,0,0,0,0,0,0,0,0,0,0,0,0,0,0,0],"id":17,"left_children":[1,3,5,7,9,11,-1,13,15,17,19,-1,-1,-1,-1,-1,-1,-1,-1,-1,-1],"loss_changes":[3.133648E2,4.59164E2,3.9886795E1,8.93945E1,5.7485382E1,1.3427734E-3,0E0,1.2455556E2,5.5562744E0,2.1722864E2,1.0537964E1,0E0,0E0,0E0,0E0,0E0,0E0,0E0,0E0,0E0,0E0],"parents":[2147483647,0,0,1,1,2,2,3,3,4,4,5,5,7,7,8,8,9,9,10,10],"right_children":[2,4,6,8,10,12,-1,14,16,18,20,-1,-1,-1,-1,-1,-1,-1,-1,-1,-1],"split_conditions":[2.0864E2,2.1061E4,7.28256E5,2.117588E4,1.1641958E5,5.3565456E5,9.952273E-2,1E0,4.8E1,1.1679395E5,3.3066503E5,-1.1400052E-1,-4.311259E-2,8.63162E-2,-1.0884161E-1,-6.999312E-2,-1.1781686E-1,9.325586E-2,-1.4206542E-1,7.5183265E-2,1.09572016E-1],"split_indices":[3,2,1,1,2,1,0,9,0,1,2,0,0,0,0,0,0,0,0,0,0],"split_type":[0,0,0,0,0,0,0,0,0,0,0,0,0,0,0,0,0,0,0,0,0],"sum_hessian":[1.1801589E3,9.5275903E2,2.2739996E2,3.347198E2,6.1803925E2,2.1899649E2,8.4034815E0,1.2953674E2,2.0518303E2,2.0143541E2,4.1660382E2,2.1740318E2,1.5933043E0,6.964073E1,5.989602E1,3.4730534E1,1.704525E2,1.4932242E2,5.211299E1,1.5202461E2,2.6457922E2],"tree_param":{"num_deleted":"0","num_feature":"12","num_nodes":"21","size_leaf_vector":"1"}},{"base_weights":[-7.422088E-3,2.3550068E-1,-1.0351285E0,-6.7388874E-1,7.283829E-1,-1.1249043E-1,5.4783905E-1,-9.5821124E-1,-3.0127388E-1,4.151563E-1,1.0406964E0,9.378736E-2,-7.12692E-2,-9.755155E-2,-1.1866171E-2,1.638019E-2,-5.733757E-2,1.02432445E-1,9.435077E-3,8.6291395E-2,1.07980184E-1],"categories":[],"categories_nodes":[],"categories_segments":[],"categories_sizes":[],"default_left":[0,0,0,0,0,0,0,0,0,0,0,0,0,0,0,0,0,0,0,0,0],"id":18,"left_children":[1,3,5,7,9,-1,11,13,15,17,19,-1,-1,-1,-1,-1,-1,-1,-1,-1,-1],"loss_changes":[2.7552588E2,4.006018E2,3.0601196E1,3.3007034E1,5.6246033E1,0E0,6.566519E0,2.4673004E0,1.7491611E1,5.675863E1,1.0805359E0,0E0,0E0,0E0,0E0,0E0,0E0,0E0,0E0,0E0,0E0],"parents":[2147483647,0,0,1,1,2,2,3,3,4,4,6,6,7,7,8,8,9,9,10,10],"right_children":[2,4,6,8,10,-1,12,14,16,18,20,-1,-1,-1,-1,-1,-1,-1,-1,-1,-1],"split_conditions":[2.0864E2,2.1061E4,1E0,1.09E2,2.2491314E5,-1.1249043E-1,5.56614E3,6.46E2,3.022014E4,5.927468E4,3.4924338E5,9.378736E-2,-7.12692E-2,-9.755155E-2,-1.1866171E-2,1.638019E-2,-5.733757E-2,1.02432445E-1,9.435077E-3,8.6291395E-2,1.07980184E-1],"split_indices":[3,2,8,2,2,0,5,0,5,5,2,0,0,0,0,0,0,0,0,0,0],"split_type":[0,0,0,0,0,0,0,0,0,0,0,0,0,0,0,0,0,0,0,0,0],"sum_hessian":[1.1016576E3,8.916628E2,2.0999478E2,3.1328003E2,5.7838275E2,1.9899825E2,1.0996537E1,1.7680103E2,1.36479E2,2.899322E2,2.8845053E2,8.593499E0,2.4030375E0,1.7307182E2,3.7291985E0,5.0523087E1,8.595592E1,9.9259094E1,1.9067311E2,5.6167175E1,2.3228336E2],"tree_param":{"num_deleted":"0","num_feature":"12","num_nodes":"21","size_leaf_vector":"1"}},{"base_weights":[2.566833E-3,2.3715374E-1,-1.0213403E0,1.0109698E-2,8.416267E-1,-1.1114091E-1,9.735703E-2,-1.502454E-1,6.747788E-1,7.254692E-1,9.92273E-1,-3.2053124E-2,5.611366E-2,8.843758E-2,1.5050437E-3,5.6777842E-2,1.0245737E-1,1.0363386E-1,7.5363144E-2],"categories":[],"categories_nodes":[],"categories_segments":[],"categories_sizes":[],"default_left":[0,0,0,0,0,0,0,0,0,0,0,0,0,0,0,0,0,0,0],"id":19,"left_children":[1,3,5,7,9,-1,-1,11,13,15,17,-1,-1,-1,-1,-1,-1,-1,-1],"loss_changes":[2.5278735E2,1.1750369E2,3.633072E1,6.6551476E1,3.3710175E0,0E0,0E0,6.112431E1,1.6768002E1,5.819664E0,2.6071167E-1,0E0,0E0,0E0,0E0,0E0,0E0,0E0,0E0],"parents":[2147483647,0,0,1,1,2,2,3,3,4,4,7,7,8,8,9,9,10,10],"right_children":[2,4,6,8,10,-1,-1,12,14,16,18,-1,-1,-1,-1,-1,-1,-1,-1],"split_conditions":[2.0864E2,4.06E2,7.28256E5,5.687529E5,3.3968212E5,-1.1114091E-1,9.735703E-2,1E0,6.8611125E5,1E0,5.1109184E5,-3.2053124E-2,5.611366E-2,8.843758E-2,1.5050437E-3,5.6777842E-2,1.0245737E-1,1.0363386E-1,7.5363144E-2],"split_indices":[3,0,1,1,1,0,0,8,4,8,4,0,0,0,0,0,0,0,0],"split_type":[0,0,0,0,0,0,0,0,0,0,0,0,0,0,0,0,0,0,0],"sum_hessian":[1.0504164E3,8.5524084E2,1.9517548E2,6.224582E2,2.3278267E2,1.8716785E2,8.007626E0,5.0209818E2,1.2036001E2,1.3472055E2,9.806212E1,4.0556595E2,9.6532234E1,9.108243E1,2.9277575E1,9.011127E1,4.460928E1,7.9955536E1,1.8106586E1],"tree_param":{"num_deleted":"0","num_feature":"12","num_nodes":"19","size_leaf_vector":"1"}},{"base_weights":[-2.2930042E-3,2.1218754E-1,-1.003903E0,-6.177385E-1,6.72728E-1,-1.0878551E0,9.483141E-2,7.2579436E-2,-1.0519966E0,3.9806482E-1,1.023177E0,-1.0946456E-1,-4.4644865E-1,-8.739143E-2,7.49813E-2,-5.842929E-2,-1.1273078E-1,6.381776E-2,-1.711951E-1,7.601499E-2,1.0594858E-1,-7.370305E-2,1.3460636E-2],"categories":[],"categories_nodes":[],"categories_segments":[],"categories_sizes":[],"default_left":[0,0,0,0,0,0,0,0,0,0,0,0,0,0,0,0,0,0,0,0,0,0,0],"id":20,"left_children":[1,3,5,7,9,11,-1,13,15,17,19,-1,21,-1,-1,-1,-1,-1,-1,-1,-1,-1,-1],"loss_changes":[2.1664523E2,3.178888E2,3.01819E1,8.9095055E1,5.10571E1,2.5608826E-1,0E0,7.475694E1,5.76416E0,1.5378387E2,1.4320984E0,0E0,6.8680596E-1,0E0,0E0,0E0,0E0,0E0,0E0,0E0,0E0,0E0,0E0],"parents":[2147483647,0,0,1,1,2,2,3,3,4,4,5,5,7,7,8,8,9,9,10,10,12,12],"right_children":[2,4,6,8,10,12,-1,14,16,18,20,-1,22,-1,-1,-1,-1,-1,-1,-1,-1,-1,-1],"split_conditions":[2.0864E2,2.1061E4,7.28256E5,2.117588E4,2.645247E5,1E0,9.483141E-2,1.09E2,4E1,2.642862E5,3.4924338E5,-1.0946456E-1,2.6755E5,-8.739143E-2,7.49813E-2,-5.842929E-2,-1.1273078E-1,6.381776E-2,-1.711951E-1,7.601499E-2,1.0594858E-1,-7.370305E-2,1.3460636E-2],"split_indices":[3,2,1,1,2,8,0,2,0,1,2,0,3,0,0,0,0,0,0,0,0,0,0],"split_type":[0,0,0,0,0,0,0,0,0,0,0,0,0,0,0,0,0,0,0,0,0,0,0],"sum_hessian":[1.0064775E3,8.296153E2,1.7686217E2,2.959505E2,5.336648E2,1.6999458E2,6.8675933E0,1.1460371E2,1.8134679E2,3.003794E2,2.3328539E2,1.6751447E2,2.4801164E0,4.7678448E1,6.692526E1,2.6365837E1,1.5498096E2,2.7031592E2,3.0063496E1,3.0957714E1,2.0232767E2,1.4743623E0,1.0057541E0],"tree_param":{"num_deleted":"0","num_feature":"12","num_nodes":"23","size_leaf_vector":"1"}},{"base_weights":[9.267353E-3,-4.7543412E-1,4.6365562E-1,-8.619288E-1,-2.1369907E-1,8.119959E-1,-9.0415084E-1,-6.86579E-1,-9.4981456E-1,1.8870981E-2,-1.10593416E-1,5.7476497E-1,1.0640349E-1,-1.0546769E-1,6.2377375E-1,-9.7138785E-2,7.7794105E-2,-9.7961806E-2,-6.814906E-2,1.1707524E-2,-1.083833E-1,7.828347E-2,2.0272618E-2,9.151387E-2,-6.635648E-2],"categories":[],"categories_nodes":[],"categories_segments":[],"categories_sizes":[],"default_left":[0,0,0,0,0,0,0,0,0,0,0,0,0,0,0,0,0,0,0,0,0,0,0,0,0],"id":21,"left_children":[1,3,5,7,9,11,13,15,17,19,-1,21,-1,-1,23,-1,-1,-1,-1,-1,-1,-1,-1,-1,-1],"loss_changes":[2.0780022E2,4.5998474E1,2.3275711E2,2.1835327E0,5.678023E1,2.2626556E1,2.3500168E1,2.7884972E1,2.9174042E-1,2.3729458E1,0E0,1.5507729E1,0E0,0E0,4.18381E0,0E0,0E0,0E0,0E0,0E0,0E0,0E0,0E0,0E0,0E0],"parents":[2147483647,0,0,1,1,2,2,3,3,4,4,5,5,6,6,7,7,8,8,9,9,11,11,14,14],"right_children":[2,4,6,8,10,12,14,16,18,20,-1,22,-1,-1,24,-1,-1,-1,-1,-1,-1,-1,-1,-1,-1],"split_conditions":[6.1772E4,1.514E3,2.0864E2,4.513812E4,2.0864E2,3.4924338E5,1E0,1E0,1.09E2,1E0,-1.10593416E-1,2.5632802E5,1.0640349E-1,-1.0546769E-1,1.9661134E5,-9.7138785E-2,7.7794105E-2,-9.7961806E-2,-6.814906E-2,1.1707524E-2,-1.083833E-1,7.828347E-2,2.0272618E-2,9.151387E-2,-6.635648E-2],"split_indices":[2,2,3,4,3,2,8,7,2,9,0,4,0,0,4,0,0,0,0,0,0,0,0,0,0],"split_type":[0,0,0,0,0,0,0,0,0,0,0,0,0,0,0,0,0,0,0,0,0,0,0,0,0],"sum_hessian":[9.415048E2,4.5553442E2,4.8597043E2,1.8300476E2,2.7252966E2,3.8765292E2,9.8317505E1,6.404136E1,1.189634E2,2.1695659E2,5.557307E1,2.013826E2,1.8627032E2,8.978219E1,8.535313E0,5.389666E1,1.0144697E1,1.0468487E2,1.4278538E1,2.000357E2,1.6920885E1,1.284438E2,7.293879E1,7.1958013E0,1.3395115E0],"tree_param":{"num_deleted":"0","num_feature":"12","num_nodes":"25","size_leaf_vector":"1"}},{"base_weights":[-8.208131E-3,1.8622105E-1,-9.8879683E-1,2.9787558E-1,-1.0696002E-1,-1.0704108E-1,4.568887E-1,1.0372767E0,1.1191678E-2,-6.617672E-2,8.56223E-2,1.0847106E-1,6.474587E-2,-1.2337997E-1,1.2805666E-2],"categories":[],"categories_nodes":[],"categories_segments":[],"categories_sizes":[],"default_left":[0,0,0,0,0,0,0,0,0,0,0,0,0,0,0],"id":22,"left_children":[1,3,5,7,-1,-1,9,11,13,-1,-1,-1,-1,-1,-1],"loss_changes":[1.706973E2,1.0509068E2,1.7968582E1,1.4561063E2,0E0,0E0,4.416135E0,2.8465576E0,7.233148E1,0E0,0E0,0E0,0E0,0E0,0E0],"parents":[2147483647,0,0,1,1,2,2,3,3,6,6,7,7,8,8],"right_children":[2,4,6,8,-1,-1,10,12,14,-1,-1,-1,-1,-1,-1],"split_conditions":[2.0864E2,1E0,1E0,4.712843E4,-1.0696002E-1,-1.0704108E-1,3.892277E5,9.21719E3,1E0,-6.617672E-2,8.56223E-2,1.0847106E-1,6.474587E-2,-1.2337997E-1,1.2805666E-2],"split_indices":[3,9,8,5,0,0,3,5,7,0,0,0,0,0,0],"split_type":[0,0,0,0,0,0,0,0,0,0,0,0,0,0,0],"sum_hessian":[8.933542E2,7.462077E2,1.4714648E2,6.859803E2,6.0227413E1,1.3952916E2,7.617331E0,1.9092854E2,4.9505176E2,1.8309927E0,5.7863383E0,1.6862703E2,2.2301523E1,4.166172E1,4.5339005E2],"tree_param":{"num_deleted":"0","num_feature":"12","num_nodes":"15","size_leaf_vector":"1"}},{"base_weights":[-3.3317155E-3,-6.385783E-1,3.1425524E-1,-6.185569E-2,-1.02297E0,6.1633706E-1,-9.4119835E-1,-6.181661E-1,7.2238123E-1,-6.1749905E-1,-1.10571004E-1,3.391676E-1,9.65531E-1,-1.0430778E0,8.9999184E-2,-1.06506705E-1,1.0037692E-1,-4.6717238E-2,1.03756726E-1,-6.974818E-2,8.5314445E-2,6.0790807E-2,-1.5080109E-1,7.119834E-2,1.031605E-1,-1.0538893E-1,-3.395804E-2],"categories":[],"categories_nodes":[],"categories_segments":[],"categories_sizes":[],"default_left":[0,0,0,0,0,0,0,0,0,0,0,0,0,0,0,0,0,0,0,0,0,0,0,0,0,0,0],"id":23,"left_children":[1,3,5,7,9,11,13,15,17,19,-1,21,23,25,-1,-1,-1,-1,-1,-1,-1,-1,-1,-1,-1,-1,-1],"loss_changes":[1.7317517E2,6.3362328E1,2.1761847E2,5.0832336E1,5.0746613E0,4.4377365E1,2.1833115E1,5.0432312E1,1.862685E1,4.2825413E0,0E0,1.2950963E2,2.680603E0,4.4843292E-1,0E0,0E0,0E0,0E0,0E0,0E0,0E0,0E0,0E0,0E0,0E0,0E0,0E0],"parents":[2147483647,0,0,1,1,2,2,3,3,4,4,5,5,6,6,7,7,8,8,9,9,11,11,12,12,13,13],"right_children":[2,4,6,8,10,12,14,16,18,20,-1,22,24,26,-1,-1,-1,-1,-1,-1,-1,-1,-1,-1,-1,-1,-1],"split_conditions":[2.1443E4,2.1729E4,2.0864E2,1E0,4.8E1,2.2491314E5,7.0313544E5,1E0,1.09E2,9.834175E5,-1.10571004E-1,2.254374E5,3.4924338E5,1E0,8.9999184E-2,-1.06506705E-1,1.0037692E-1,-4.6717238E-2,1.03756726E-1,-6.974818E-2,8.5314445E-2,6.0790807E-2,-1.5080109E-1,7.119834E-2,1.031605E-1,-1.0538893E-1,-3.395804E-2],"split_indices":[2,1,3,7,0,2,1,8,2,1,0,1,2,8,0,0,0,0,0,0,0,0,0,0,0,0,0],"split_type":[0,0,0,0,0,0,0,0,0,0,0,0,0,0,0,0,0,0,0,0,0,0,0,0,0,0,0],"sum_hessian":[8.563874E2,2.851038E2,5.7128357E2,1.14489784E2,1.70614E2,4.6089426E2,1.1038931E2,6.710184E1,4.7387947E1,3.0349276E1,1.4026472E2,2.5804486E2,2.0284941E2,1.0501211E2,5.377211E0,5.287596E1,1.4225876E1,9.824978E0,3.756297E1,2.9282446E1,1.06683E0,2.2585655E2,3.2188297E1,4.4368473E1,1.5848093E2,1.0293217E2,2.0799375E0],"tree_param":{"num_deleted":"0","num_feature":"12","num_nodes":"27","size_leaf_vector":"1"}},{"base_weights":[3.8521332E-3,-5.131562E-1,3.5562766E-1,-7.855819E-1,-2.6447085E-1,6.5406317E-1,-9.184991E-1,-3.6667016E-1,-8.7831384E-1,-1.04925245E-1,-1.05456196E-1,3.6559033E-1,9.708654E-1,-1.03809215E-1,4.5540446E-1,1.5077357E-2,-6.134673E-2,-9.225675E-2,2.4409436E-2,4.337913E-2,-4.0249985E-2,9.956131E-2,8.465626E-3,6.897231E-2,1.03568114E-1,-6.573652E-2,8.980613E-2],"categories":[],"categories_nodes":[],"categories_segments":[],"categories_sizes":[],"default_left":[0,0,0,0,0,0,0,0,0,0,0,0,0,0,0,0,0,0,0,0,0,0,0,0,0,0,0],"id":24,"left_children":[1,3,5,7,9,11,13,15,17,19,-1,21,23,-1,25,-1,-1,-1,-1,-1,-1,-1,-1,-1,-1,-1,-1],"loss_changes":[1.4659523E2,2.1903458E1,1.8299022E2,5.708664E0,2.1587105E1,3.52153E1,1.5497993E1,3.9049234E0,6.503128E0,2.3310335E1,0E0,3.6256626E1,2.6549377E0,0E0,4.5396237E0,0E0,0E0,0E0,0E0,0E0,0E0,0E0,0E0,0E0,0E0,0E0,0E0],"parents":[2147483647,0,0,1,1,2,2,3,3,4,4,5,5,6,6,7,7,8,8,9,9,11,11,12,12,14,14],"right_children":[2,4,6,8,10,12,14,16,18,20,-1,22,24,-1,26,-1,-1,-1,-1,-1,-1,-1,-1,-1,-1,-1,-1],"split_conditions":[3.6792E4,2E3,2.0864E2,6.8E1,2.0864E2,2.3794362E5,1E0,4.513812E4,6.25E2,4.177589E4,-1.05456196E-1,8.417431E4,3.4924338E5,-1.03809215E-1,3.892277E5,1.5077357E-2,-6.134673E-2,-9.225675E-2,2.4409436E-2,4.337913E-2,-4.0249985E-2,9.956131E-2,8.465626E-3,6.897231E-2,1.03568114E-1,-6.573652E-2,8.980613E-2],"split_indices":[2,2,3,0,3,2,8,4,0,5,0,5,2,0,3,0,0,0,0,0,0,0,0,0,0,0,0],"split_type":[0,0,0,0,0,0,0,0,0,0,0,0,0,0,0,0,0,0,0,0,0,0,0,0,0,0,0],"sum_hessian":[8.0403674E2,3.253733E2,4.7866342E2,1.5424481E2,1.711285E2,3.8821863E2,9.044482E1,2.8853725E1,1.2539108E2,1.4332019E2,2.7808298E1,2.0432185E2,1.8389677E2,8.3427216E1,7.0175986E0,9.44341E0,1.9410315E1,1.2080605E2,4.585025E0,5.0834248E1,9.248594E1,6.22272E1,1.4209465E2,3.6634323E1,1.4726245E2,1.8590915E0,5.1585073E0],"tree_param":{"num_deleted":"0","num_feature":"12","num_nodes":"27","size_leaf_vector":"1"}},{"base_weights":[2.1278297E-3,1.6498084E-1,-9.491736E-1,-4.3130454E-2,7.7222E-1,-1.039418E0,8.7421976E-2,4.0810788E-1,-2.10779E-1,9.3155646E-1,6.694837E-1,-1.0449405E-1,-2.5118038E-2,-7.5233914E-3,1.0845931E-1,-3.257976E-2,4.66074E-2,2.111535E-2,1.0398419E-1,-9.1800384E-2,7.210276E-2],"categories":[],"categories_nodes":[],"categories_segments":[],"categories_sizes":[],"default_left":[0,0,0,0,0,0,0,0,0,0,0,0,0,0,0,0,0,0,0,0,0],"id":25,"left_children":[1,3,5,7,9,11,-1,13,15,17,19,-1,-1,-1,-1,-1,-1,-1,-1,-1,-1],"loss_changes":[1.17877655E2,8.2132385E1,1.920945E1,3.675961E1,2.091591E0,2.0082855E-1,0E0,4.3131645E1,2.7720417E1,4.653633E0,9.204662E0,0E0,0E0,0E0,0E0,0E0,0E0,0E0,0E0,0E0,0E0],"parents":[2147483647,0,0,1,1,2,2,3,3,4,4,5,5,7,7,8,8,9,9,10,10],"right_children":[2,4,6,8,10,12,-1,14,16,18,20,-1,-1,-1,-1,-1,-1,-1,-1,-1,-1],"split_conditions":[2.0864E2,4.06E2,7.28256E5,1.29E2,3.022014E4,5.3565456E5,8.7421976E-2,4.5E1,6.1950206E5,1E0,1E0,-1.0449405E-1,-2.5118038E-2,-7.5233914E-3,1.0845931E-1,-3.257976E-2,4.66074E-2,2.111535E-2,1.0398419E-1,-9.1800384E-2,7.210276E-2],"split_indices":[3,0,1,0,5,1,0,0,1,8,7,0,0,0,0,0,0,0,0,0,0],"split_type":[0,0,0,0,0,0,0,0,0,0,0,0,0,0,0,0,0,0,0,0,0],"sum_hessian":[7.588716E2,6.486551E2,1.102165E2,4.8378323E2,1.6487186E2,1.05428535E2,4.7879696E0,1.3066216E2,3.5312106E2,6.1469593E1,1.0340227E2,1.0437162E2,1.0569142E0,7.672891E1,5.393324E1,3.022739E2,5.084718E1,8.417758E0,5.3051834E1,2.7231305E0,1.0067913E2],"tree_param":{"num_deleted":"0","num_feature":"12","num_nodes":"21","size_leaf_vector":"1"}},{"base_weights":[-1.5042813E-2,-3.6366585E-1,4.903515E-1,-2.1209855E-2,-1.1154771E0,7.930747E-1,-8.2926625E-1,-6.876465E-1,2.549596E-1,-1.0000918E0,-1.5720946E0,5.4118454E-1,1.02240525E-1,-9.9553895E-1,7.523989E-1,1.18490756E-1,-1.00517884E-1,5.3863376E-2,-1.0526234E-1,-2.9429593E-4,-1.04824066E-1,-2.2296487E-1,-1.19846284E-1,7.5389706E-2,-2.6894692E-1,-1.0070598E-1,-2.0622766E-2,1.7127384E-2,8.359342E-2],"categories":[],"categories_nodes":[],"categories_segments":[],"categories_sizes":[],"default_left":[0,0,0,0,0,0,0,0,0,0,0,0,0,0,0,0,0,0,0,0,0,0,0,0,0,0,0,0,0],"id":26,"left_children":[1,3,5,7,9,11,13,15,17,19,21,23,-1,25,27,-1,-1,-1,-1,-1,-1,-1,-1,-1,-1,-1,-1,-1,-1],"loss_changes":[1.2979317E2,1.1220869E2,1.2079197E2,5.548486E1,5.6144104E0,1.3606537E1,1.5635082E1,5.3703865E1,7.96479E1,5.3567276E0,3.6583672E0,8.376378E1,0E0,2.6199722E-1,1.4585805E-1,0E0,0E0,0E0,0E0,0E0,0E0,0E0,0E0,0E0,0E0,0E0,0E0,0E0,0E0],"parents":[2147483647,0,0,1,1,2,2,3,3,4,4,5,5,6,6,7,7,8,8,9,9,10,10,11,11,13,13,14,14],"right_children":[2,4,6,8,10,12,14,16,18,20,22,24,-1,26,28,-1,-1,-1,-1,-1,-1,-1,-1,-1,-1,-1,-1,-1,-1],"split_conditions":[1.1214E5,1.1295885E5,2.0864E2,2E3,5.1479E4,3.4924338E5,5.3565456E5,1.50643E3,2.0864E2,1.4E1,1.5423686E5,3.4895297E5,1.02240525E-1,6.19E2,7.7035745E6,1.18490756E-1,-1.00517884E-1,5.3863376E-2,-1.0526234E-1,-2.9429593E-4,-1.04824066E-1,-2.2296487E-1,-1.19846284E-1,7.5389706E-2,-2.6894692E-1,-1.0070598E-1,-2.0622766E-2,1.7127384E-2,8.359342E-2],"split_indices":[2,1,3,2,2,2,1,1,3,0,1,1,0,0,1,0,0,0,0,0,0,0,0,0,0,0,0,0,0],"split_type":[0,0,0,0,0,0,0,0,0,0,0,0,0,0,0,0,0,0,0,0,0,0,0,0,0,0,0,0,0],"sum_hessian":[7.346451E2,4.349176E2,2.9972748E2,2.9951456E2,1.3540305E2,2.4412393E2,5.5603558E1,8.731674E1,2.121978E2,1.1063604E2,2.4767012E1,1.1794086E2,1.2618307E2,5.064959E1,4.9539676E0,1.2263678E1,7.505307E1,1.7485243E2,3.734537E1,5.145032E0,1.0549101E2,7.173998E0,1.7593014E1,1.113744E2,6.566463E0,4.9649033E1,1.000556E0,1.0059873E0,3.9479802E0],"tree_param":{"num_deleted":"0","num_feature":"12","num_nodes":"29","size_leaf_vector":"1"}},{"base_weights":[-2.2665754E-2,-3.6642936E-1,4.880213E-1,-2.4680357E-2,-1.0997344E0,7.822779E-1,-8.1622374E-1,-7.612512E-1,2.4981837E-1,-8.620038E-1,-1.2733922E0,5.494033E-1,1.0051479E-1,-9.757363E-1,8.4247425E-2,1.3212594E-1,-9.829556E-2,5.044377E-2,-1.0424799E-1,1.9834429E-2,-9.986196E-2,-1.13921516E-1,-1.5159081E-1,7.635706E-2,-2.3585401E-1,-9.996643E-2,-3.49739E-2],"categories":[],"categories_nodes":[],"categories_segments":[],"categories_sizes":[],"default_left":[0,0,0,0,0,0,0,0,0,0,0,0,0,0,0,0,0,0,0,0,0,0,0,0,0,0,0],"id":27,"left_children":[1,3,5,7,9,11,13,15,17,19,21,23,-1,25,-1,-1,-1,-1,-1,-1,-1,-1,-1,-1,-1,-1,-1],"loss_changes":[1.2197578E2,1.0403175E2,1.07925415E2,5.766297E1,4.3507233E0,1.1312347E1,1.4567116E1,3.7043835E1,6.89125E1,8.716591E0,6.8652344E-1,7.279669E1,0E0,3.6720276E-1,0E0,0E0,0E0,0E0,0E0,0E0,0E0,0E0,0E0,0E0,0E0,0E0,0E0],"parents":[2147483647,0,0,1,1,2,2,3,3,4,4,5,5,6,6,7,7,8,8,9,9,10,10,11,11,13,13],"right_children":[2,4,6,8,10,12,14,16,18,20,22,24,-1,26,-1,-1,-1,-1,-1,-1,-1,-1,-1,-1,-1,-1,-1],"split_conditions":[1.0846907E5,1.1295885E5,2.0864E2,1.139E3,4.581E3,3.4924338E5,7.0313544E5,5.9515E2,2.0864E2,3.58397E4,5.524748E4,3.4895297E5,1.0051479E-1,3.9815706E5,8.4247425E-2,1.3212594E-1,-9.829556E-2,5.044377E-2,-1.0424799E-1,1.9834429E-2,-9.986196E-2,-1.13921516E-1,-1.5159081E-1,7.635706E-2,-2.3585401E-1,-9.996643E-2,-3.49739E-2],"split_indices":[2,1,3,2,2,2,1,1,3,4,2,1,0,1,0,0,0,0,0,0,0,0,0,0,0,0,0],"split_type":[0,0,0,0,0,0,0,0,0,0,0,0,0,0,0,0,0,0,0,0,0,0,0,0,0,0,0],"sum_hessian":[6.927799E2,4.142287E2,2.7855118E2,2.8325458E2,1.3097412E2,2.2760124E2,5.0949936E1,7.642033E1,2.0683424E2,5.7805084E1,7.316904E1,1.12997E2,1.1460425E2,4.6855694E1,4.0942426E0,6.8757334E0,6.954459E1,1.7329909E2,3.3535164E1,6.5460258E0,5.1259056E1,5.0774464E1,2.2394571E1,1.0593259E2,7.064416E0,4.4555687E1,2.300004E0],"tree_param":{"num_deleted":"0","num_feature":"12","num_nodes":"27","size_leaf_vector":"1"}},{"base_weights":[-1.4477831E-2,1.1460082E-1,-1.0539579E-1,8.9217514E-1,-1.04462646E-1,1.0310614E0,-9.3781754E-2,-1.0656443E0,5.2790266E-2,1.0499022E-1,-2.4814539E-2,-2.551795E-2,-1.14412025E-1,-8.446786E-3,9.6152745E-2],"categories":[],"categories_nodes":[],"categories_segments":[],"categories_sizes":[],"default_left":[0,0,0,0,0,0,0,0,0,0,0,0,0,0,0],"id":28,"left_children":[1,3,-1,5,7,9,-1,11,13,-1,-1,-1,-1,-1,-1],"loss_changes":[8.850071E1,1.0005373E2,0E0,3.3777283E1,6.939463E1,3.1638184E0,0E0,3.8133621E0,4.9374653E1,0E0,0E0,0E0,0E0,0E0,0E0],"parents":[2147483647,0,0,1,1,3,3,4,4,5,5,7,7,8,8],"right_children":[2,4,-1,6,8,10,-1,12,14,-1,-1,-1,-1,-1,-1],"split_conditions":[1E0,9.21719E3,-1.0539579E-1,1E0,1E0,7.44039E3,-9.3781754E-2,1.9E1,5.687529E5,1.0499022E-1,-2.4814539E-2,-2.551795E-2,-1.14412025E-1,-8.446786E-3,9.6152745E-2],"split_indices":[9,5,0,10,7,4,0,0,1,0,0,0,0,0,0],"split_type":[0,0,0,0,0,0,0,0,0,0,0,0,0,0,0],"sum_hessian":[6.57693E2,5.858359E2,7.185711E1,1.280928E2,4.577431E2,1.19462814E2,8.629988E0,6.3546898E1,3.941962E2,1.1790551E2,1.557309E0,5.9852834E0,5.7561615E1,3.432568E2,5.093939E1],"tree_param":{"num_deleted":"0","num_feature":"12","num_nodes":"15","size_leaf_vector":"1"}},{"base_weights":[-1.7942334E-2,-4.7957882E-1,3.1887856E-1,7.861842E-2,-1.006614E0,5.524239E-1,-8.944175E-1,6.178548E-1,-1.0269171E-1,9.226231E-2,-1.0304993E0,3.4338272E-1,9.9026024E-2,-1.0021253E0,7.8479715E-2,7.463893E-2,-9.856357E-2,-5.7124585E-2,-1.10679366E-1,4.8080187E-2,-1.6749212E-1,-1.0209397E-1,-3.0082649E-2],"categories":[],"categories_nodes":[],"categories_segments":[],"categories_sizes":[],"default_left":[0,0,0,0,0,0,0,0,0,0,0,0,0,0,0,0,0,0,0,0,0,0,0],"id":29,"left_children":[1,3,5,7,9,11,13,15,-1,-1,17,19,-1,21,-1,-1,-1,-1,-1,-1,-1,-1,-1],"loss_changes":[9.768978E1,7.804403E1,1.0343182E2,7.791308E1,7.2354584E0,2.7598679E1,1.1461239E1,1.882246E1,0E0,0E0,4.104599E0,5.853408E1,0E0,4.3048096E-1,0E0,0E0,0E0,0E0,0E0,0E0,0E0,0E0,0E0],"parents":[2147483647,0,0,1,1,2,2,3,3,4,4,5,5,6,6,7,7,10,10,11,11,13,13],"right_children":[2,4,6,8,10,12,14,16,-1,-1,18,20,-1,22,-1,-1,-1,-1,-1,-1,-1,-1,-1],"split_conditions":[3.361311E4,3.2872E4,2.0864E2,1E0,9E0,3.4924338E5,7.0313544E5,2.0864E2,-1.0269171E-1,9.226231E-2,4E1,3.4895297E5,9.9026024E-2,1E0,7.8479715E-2,7.463893E-2,-9.856357E-2,-5.7124585E-2,-1.10679366E-1,4.8080187E-2,-1.6749212E-1,-1.0209397E-1,-3.0082649E-2],"split_indices":[2,1,3,9,0,2,1,3,0,0,0,1,0,8,0,0,0,0,0,0,0,0,0],"split_type":[0,0,0,0,0,0,0,0,0,0,0,0,0,0,0,0,0,0,0,0,0,0,0],"sum_hessian":[6.262917E2,2.640158E2,3.6227588E2,1.2863055E2,1.3538527E2,3.0425504E2,5.802085E1,8.675569E1,4.1874855E1,1.1955163E0,1.3418976E2,2.0714142E2,9.711362E1,5.4902527E1,3.118326E0,8.0812355E1,5.9433336E0,2.032583E1,1.1386392E2,1.9465016E2,1.2491261E1,5.302421E1,1.8783152E0],"tree_param":{"num_deleted":"0","num_feature":"12","num_nodes":"23","size_leaf_vector":"1"}},{"base_weights":[2.378636E-3,-2.914899E-1,4.6709818E-1,3.047596E-2,-1.0389826E0,5.970855E-1,-9.73139E-2,2.9916194E-1,-1.0460036E-1,-6.4456517E-1,-1.2297463E0,-8.842857E-1,6.8967146E-1,-5.889929E-2,4.6287846E-2,3.3209148E-1,-8.953826E-2,-1.0913336E-1,-1.51221E-1,-9.538035E-2,-3.2874986E-3,4.263698E-2,9.7141154E-2],"categories":[],"categories_nodes":[],"categories_segments":[],"categories_sizes":[],"default_left":[0,0,0,0,0,0,0,0,0,0,0,0,0,0,0,0,0,0,0,0,0,0,0],"id":30,"left_children":[1,3,5,7,9,11,-1,13,-1,15,17,19,21,-1,-1,-1,-1,-1,-1,-1,-1,-1,-1],"loss_changes":[8.152598E1,8.804726E1,4.3875294E1,7.452663E1,7.4935074E0,2.9787094E1,0E0,3.0242592E1,0E0,4.0771194E1,1.208664E0,7.352438E-1,1.4480278E1,0E0,0E0,0E0,0E0,0E0,0E0,0E0,0E0,0E0,0E0],"parents":[2147483647,0,0,1,1,2,2,3,3,4,4,5,5,7,7,9,9,10,10,11,11,12,12],"right_children":[2,4,6,8,10,12,-1,14,-1,16,18,20,22,-1,-1,-1,-1,-1,-1,-1,-1,-1,-1],"split_conditions":[1.1214E5,1.1295885E5,1E0,1E0,1.09E2,1.1003478E5,-9.73139E-2,1.09E2,-1.0460036E-1,4.513812E4,5.524748E4,6.314419E5,3.4924338E5,-5.889929E-2,4.6287846E-2,3.3209148E-1,-8.953826E-2,-1.0913336E-1,-1.51221E-1,-9.538035E-2,-3.2874986E-3,4.263698E-2,9.7141154E-2],"split_indices":[2,1,10,9,2,1,0,2,0,4,2,5,2,0,0,0,0,0,0,0,0,0,0],"split_type":[0,0,0,0,0,0,0,0,0,0,0,0,0,0,0,0,0,0,0,0,0,0,0],"sum_hessian":[5.9497235E2,3.647151E2,2.3025726E2,2.5558623E2,1.0912885E2,2.1173294E2,1.8524334E1,2.051128E2,5.047343E1,3.7002487E1,7.2126366E1,1.1951918E1,1.9978102E2,3.152009E1,1.7359271E2,1.4730389E0,3.5529446E1,5.1670456E1,2.0455912E1,1.0938522E1,1.013395E0,1.04568924E2,9.52121E1],"tree_param":{"num_deleted":"0","num_feature":"12","num_nodes":"23","size_leaf_vector":"1"}},{"base_weights":[-2.2791575E-3,-3.4237877E-1,3.7476754E-1,8.022453E-2,-1.0008583E0,5.9848875E-1,-8.23846E-1,-3.9868972E-1,5.268941E-1,-7.203047E-1,-1.2470946E0,3.7179336E-1,9.8627344E-2,-9.540341E-1,7.602715E-2,1.9356238E-2,-1.1478243E-1,8.1506185E-2,-9.999099E-2,1.2062694E-3,-9.423798E-2,-1.1387195E-1,-1.5292783E-1,5.3427227E-2,-1.5441273E-1,-9.79655E-2,-3.4829825E-2],"categories":[],"categories_nodes":[],"categories_segments":[],"categories_sizes":[],"default_left":[0,0,0,0,0,0,0,0,0,0,0,0,0,0,0,0,0,0,0,0,0,0,0,0,0,0,0],"id":31,"left_children":[1,3,5,7,9,11,13,15,17,19,21,23,-1,25,-1,-1,-1,-1,-1,-1,-1,-1,-1,-1,-1,-1,-1],"loss_changes":[7.2993095E1,8.3359764E1,7.288159E1,3.940143E1,7.188568E0,1.9682579E1,9.568941E0,3.9701576E1,4.2712265E1,9.295691E0,1.2333679E-1,4.612921E1,0E0,2.8063583E-1,0E0,0E0,0E0,0E0,0E0,0E0,0E0,0E0,0E0,0E0,0E0,0E0,0E0],"parents":[2147483647,0,0,1,1,2,2,3,3,4,4,5,5,6,6,7,7,8,8,9,9,10,10,11,11,13,13],"right_children":[2,4,6,8,10,12,14,16,18,20,22,24,-1,26,-1,-1,-1,-1,-1,-1,-1,-1,-1,-1,-1,-1,-1],"split_conditions":[6.408354E4,6.289881E4,2.0864E2,1.2461E4,4.581E3,3.4924338E5,7.0313544E5,1.177568E4,2.0864E2,4.8E1,4.996672E4,3.4467347E5,9.8627344E-2,3.9815706E5,7.602715E-2,1.9356238E-2,-1.1478243E-1,8.1506185E-2,-9.999099E-2,1.2062694E-3,-9.423798E-2,-1.1387195E-1,-1.5292783E-1,5.3427227E-2,-1.5441273E-1,-9.79655E-2,-3.4829825E-2],"split_indices":[2,1,3,2,2,2,1,1,3,0,2,1,0,1,0,0,0,0,0,0,0,0,0,0,0,0,0],"split_type":[0,0,0,0,0,0,0,0,0,0,0,0,0,0,0,0,0,0,0,0,0,0,0,0,0,0,0],"sum_hessian":[5.672198E2,2.982697E2,2.6895007E2,1.8220876E2,1.1606095E2,2.2706845E2,4.1881638E1,8.79824E1,9.4226364E1,5.6084908E1,5.9976048E1,1.4453397E2,8.253448E1,3.90686E1,2.8130383E0,4.955039E1,3.843201E1,7.965795E1,1.4568412E1,1.3269607E1,4.28153E1,4.6971565E1,1.300448E1,1.338998E2,1.0634178E1,3.689092E1,2.1776807E0],"tree_param":{"num_deleted":"0","num_feature":"12","num_nodes":"27","size_leaf_vector":"1"}},{"base_weights":[-1.724294E-2,1.0669787E-1,-9.316145E-1,1.9507329E-1,-1.0451722E-1,-1.0165557E0,7.481208E-2,1.0093063E0,-1.2453834E-2,-1.0255317E-1,-2.7135555E-2,1.0267122E-1,3.873726E-2,-1.0970099E-1,7.014151E-3],"categories":[],"categories_nodes":[],"categories_segments":[],"categories_sizes":[],"default_left":[0,0,0,0,0,0,0,0,0,0,0,0,0,0,0],"id":32,"left_children":[1,3,5,7,-1,9,-1,11,13,-1,-1,-1,-1,-1,-1],"loss_changes":[6.1032555E1,4.8495132E1,9.932362E0,7.460294E1,0E0,1.3383484E-1,0E0,5.7297516E-1,3.1676746E1,0E0,0E0,0E0,0E0,0E0,0E0],"parents":[2147483647,0,0,1,1,2,2,3,3,5,5,7,7,8,8],"right_children":[2,4,6,8,-1,10,-1,12,14,-1,-1,-1,-1,-1,-1],"split_conditions":[2.0864E2,1E0,7.28256E5,1.734821E4,-1.0451722E-1,4.9200303E5,7.481208E-2,9.21719E3,1E0,-1.0255317E-1,-2.7135555E-2,1.0267122E-1,3.873726E-2,-1.0970099E-1,7.014151E-3],"split_indices":[3,9,1,5,0,1,0,5,7,0,0,0,0,0,0],"split_type":[0,0,0,0,0,0,0,0,0,0,0,0,0,0,0],"sum_hessian":[5.3667096E2,4.7338773E2,6.328323E1,4.404273E2,3.296044E1,6.0612953E1,2.670276E0,8.866937E1,3.5175793E2,5.951985E1,1.0931027E0,8.5622246E1,3.0471225E0,2.4023579E1,3.2773434E2],"tree_param":{"num_deleted":"0","num_feature":"12","num_nodes":"15","size_leaf_vector":"1"}},{"base_weights":[-2.4047645E-3,-1.7966978E-1,6.1755747E-1,-7.836729E-2,-1.01734996E-1,-1.6179068E-1,7.689158E-1,7.9892623E-1,-2.4235825E-1,7.288801E-1,-1.131468E-1,7.9857314E-1,-6.435612E-2,9.703076E-2,-8.5625485E-2,2.2426553E-2,-4.0279794E-2,1.0471066E-1,-6.4996034E-2,8.210578E-2,-5.5024117E-2],"categories":[],"categories_nodes":[],"categories_segments":[],"categories_sizes":[],"default_left":[0,0,0,0,0,0,0,0,0,0,0,0,0,0,0,0,0,0,0,0,0],"id":33,"left_children":[1,3,5,7,-1,9,11,13,15,17,-1,19,-1,-1,-1,-1,-1,-1,-1,-1,-1],"loss_changes":[5.723059E1,3.428478E1,1.3783501E1,5.2324837E1,0E0,1.7802034E1,4.5829926E0,1.7084831E1,2.3003088E1,5.443262E0,0E0,3.3506393E0,0E0,0E0,0E0,0E0,0E0,0E0,0E0,0E0,0E0],"parents":[2147483647,0,0,1,1,2,2,3,3,5,5,6,6,7,7,8,8,9,9,11,11],"right_children":[2,4,6,8,-1,10,12,14,16,18,-1,20,-1,-1,-1,-1,-1,-1,-1,-1,-1],"split_conditions":[4.06E2,1E0,1.401738E4,9.21719E3,-1.01734996E-1,1.389636E4,1E0,1E0,1.29E2,1E0,-1.131468E-1,1E0,-6.435612E-2,9.703076E-2,-8.5625485E-2,2.2426553E-2,-4.0279794E-2,1.0471066E-1,-6.4996034E-2,8.210578E-2,-5.5024117E-2],"split_indices":[0,9,2,5,0,1,9,10,0,9,0,10,0,0,0,0,0,0,0,0,0],"split_type":[0,0,0,0,0,0,0,0,0,0,0,0,0,0,0,0,0,0,0,0,0],"sum_hessian":[5.187532E2,4.039597E2,1.1479349E2,3.613539E2,4.2605766E1,1.8657352E1,9.613614E1,5.6299545E1,3.0505438E2,9.854288E0,8.803063E0,9.45848E1,1.5513377E0,5.1392063E1,4.90748E0,7.794904E1,2.2710533E2,8.20193E0,1.6523582E0,9.341879E1,1.1660111E0],"tree_param":{"num_deleted":"0","num_feature":"12","num_nodes":"21","size_leaf_vector":"1"}},{"base_weights":[-1.4923898E-2,9.667394E-2,-9.110559E-1,-6.4591415E-2,6.321145E-1,-9.966277E-1,7.185518E-2,3.545697E-1,-2.1974748E-1,5.237127E-1,8.9779764E-1,-1.0167012E-1,-1.8516975E-2,-2.4215793E-3,1.05267026E-1,-2.967966E-2,4.554103E-2,-8.197906E-2,5.8916654E-2,9.920654E-2,-6.035138E-2],"categories":[],"categories_nodes":[],"categories_segments":[],"categories_sizes":[],"default_left":[0,0,0,0,0,0,0,0,0,0,0,0,0,0,0,0,0,0,0,0,0],"id":34,"left_children":[1,3,5,7,9,11,-1,13,15,17,19,-1,-1,-1,-1,-1,-1,-1,-1,-1,-1],"loss_changes":[5.016602E1,3.8569122E1,8.462433E0,2.2438671E1,2.5070152E0,6.78257E-1,0E0,2.468874E1,1.3221134E1,7.1502323E0,4.6400375E0,0E0,0E0,0E0,0E0,0E0,0E0,0E0,0E0,0E0,0E0],"parents":[2147483647,0,0,1,1,2,2,3,3,4,4,5,5,7,7,8,8,9,9,10,10],"right_children":[2,4,6,8,10,12,-1,14,16,18,20,-1,-1,-1,-1,-1,-1,-1,-1,-1,-1],"split_conditions":[2.0864E2,4.06E2,7.0313544E5,1.29E2,1E0,1E0,7.185518E-2,4.8E1,6.7756325E5,1E0,5.56614E3,-1.0167012E-1,-1.8516975E-2,-2.4215793E-3,1.05267026E-1,-2.967966E-2,4.554103E-2,-8.197906E-2,5.8916654E-2,9.920654E-2,-6.035138E-2],"split_indices":[3,0,1,0,8,8,0,0,1,7,5,0,0,0,0,0,0,0,0,0,0],"split_type":[0,0,0,0,0,0,0,0,0,0,0,0,0,0,0,0,0,0,0,0,0],"sum_hessian":[4.9974738E2,4.4519778E2,5.454961E1,3.428244E2,1.0237336E2,5.219713E1,2.3524802E0,9.2269356E1,2.5055505E2,7.4817955E1,2.755541E1,5.0690243E1,1.5068861E0,6.0440166E1,3.1829187E1,2.2539352E2,2.5161533E1,2.940321E0,7.187763E1,2.624658E1,1.308829E0],"tree_param":{"num_deleted":"0","num_feature":"12","num_nodes":"21","size_leaf_vector":"1"}},{"base_weights":[-4.6143364E-3,-4.567811E-1,2.4568021E-1,1.6938631E-1,-9.2688954E-1,4.0889874E-1,-8.4769315E-1,6.380961E-1,-9.851404E-2,-7.248764E-1,-1.13189995E-1,1.7289166E-1,8.4776783E-1,-9.486008E-1,6.960177E-2,-2.0857226E-2,8.41816E-2,9.41421E-2,-8.9364015E-2,4.286542E-2,-1.3857296E-1,9.669462E-2,5.3199213E-2,-9.739961E-2,-2.5692528E-2],"categories":[],"categories_nodes":[],"categories_segments":[],"categories_sizes":[],"default_left":[0,0,0,0,0,0,0,0,0,0,0,0,0,0,0,0,0,0,0,0,0,0,0,0,0],"id":35,"left_children":[1,3,5,7,9,11,13,15,-1,17,-1,19,21,23,-1,-1,-1,-1,-1,-1,-1,-1,-1,-1,-1],"loss_changes":[5.532533E1,5.1429283E1,5.6503723E1,4.1504646E1,3.3061295E0,2.8282959E1,7.0778923E0,9.54706E0,0E0,1.5736549E1,0E0,7.224856E1,3.088272E0,4.364586E-1,0E0,0E0,0E0,0E0,0E0,0E0,0E0,0E0,0E0,0E0,0E0],"parents":[2147483647,0,0,1,1,2,2,3,3,4,4,5,5,6,6,7,7,9,9,11,11,12,12,13,13],"right_children":[2,4,6,8,10,12,14,16,-1,18,-1,20,22,24,-1,-1,-1,-1,-1,-1,-1,-1,-1,-1,-1],"split_conditions":[2.1673E4,2.1729E4,2.0864E2,1E0,1.09E2,2.1940752E5,7.0313544E5,1.09E2,-9.851404E-2,4.513812E4,-1.13189995E-1,2.153919E5,3.3563303E5,1E0,6.960177E-2,-2.0857226E-2,8.41816E-2,9.41421E-2,-8.9364015E-2,4.286542E-2,-1.3857296E-1,9.669462E-2,5.3199213E-2,-9.739961E-2,-2.5692528E-2],"split_indices":[2,1,3,9,2,2,1,2,0,4,0,1,4,8,0,0,0,0,0,0,0,0,0,0,0],"split_type":[0,0,0,0,0,0,0,0,0,0,0,0,0,0,0,0,0,0,0,0,0,0,0,0,0],"sum_hessian":[4.868566E2,1.7317831E2,3.1367828E2,7.453718E1,9.8641136E1,2.7347937E2,4.0198914E1,5.333271E1,2.1204473E1,5.1968357E1,4.6672775E1,1.7874895E2,9.473042E1,3.809431E1,2.1046028E0,1.0339112E1,4.2993595E1,4.3582816E0,4.7610073E1,1.5417459E2,2.4574356E1,6.727698E1,2.7453444E1,3.635148E1,1.7428335E0],"tree_param":{"num_deleted":"0","num_feature":"12","num_nodes":"25","size_leaf_vector":"1"}},{"base_weights":[-3.3029944E-2,-5.694011E-1,1.7969154E-1,1.3613069E-1,-9.3276334E-1,3.2725894E-1,-9.015002E-1,6.326199E-1,-9.587948E-2,-9.540206E-1,1.783621E-2,1.6143245E-1,9.4688736E-2,-1.0036629E-1,6.881424E-2,1.475746E-1,3.7330043E-2,-1.1259373E-1,-8.0624424E-2,8.227536E-2,-9.824236E-3],"categories":[],"categories_nodes":[],"categories_segments":[],"categories_sizes":[],"default_left":[0,0,0,0,0,0,0,0,0,0,0,0,0,0,0,0,0,0,0,0,0],"id":36,"left_children":[1,3,5,7,9,11,13,15,-1,17,-1,19,-1,-1,-1,-1,-1,-1,-1,-1,-1],"loss_changes":[5.348257E1,3.4247807E1,5.386375E1,2.567684E1,2.2481613E0,3.0278158E1,7.282284E0,6.5181837E0,0E0,1.2893677E0,0E0,4.0409943E1,0E0,0E0,0E0,0E0,0E0,0E0,0E0,0E0,0E0],"parents":[2147483647,0,0,1,1,2,2,3,3,4,4,5,5,6,6,7,7,9,9,11,11],"right_children":[2,4,6,8,10,12,14,16,-1,18,-1,20,-1,-1,-1,-1,-1,-1,-1,-1,-1],"split_conditions":[1.318914E4,1.340167E4,2.0864E2,1E0,1.367071E6,3.4924338E5,7.0313544E5,8.8431E2,-9.587948E-2,8.754141E4,1.783621E-2,6.142447E4,9.4688736E-2,-1.0036629E-1,6.881424E-2,1.475746E-1,3.7330043E-2,-1.1259373E-1,-8.0624424E-2,8.227536E-2,-9.824236E-3],"split_indices":[2,1,3,9,1,2,1,1,0,1,0,1,0,0,0,0,0,0,0,0,0],"split_type":[0,0,0,0,0,0,0,0,0,0,0,0,0,0,0,0,0,0,0,0,0],"sum_hessian":[4.6684705E2,1.3209543E2,3.3475162E2,4.511741E1,8.697803E1,2.951633E2,3.9588306E1,3.1332188E1,1.3785219E1,8.5484E1,1.4940261E0,2.3384236E2,6.1320946E1,3.7544064E1,2.0442455E0,6.266631E0,2.5065557E1,3.6454815E1,4.9029182E1,6.532047E1,1.685219E2],"tree_param":{"num_deleted":"0","num_feature":"12","num_nodes":"21","size_leaf_vector":"1"}},{"base_weights":[-1.1466088E-3,8.670956E-2,-1.0241782E-1,8.6342734E-1,-7.368111E-2,9.8026323E-1,-2.3757875E-1,-1.0482501E0,4.1666977E-2,1.0136165E-1,5.9611727E-2,-8.31679E-2,7.0835605E-2,-1.7752014E-2,-1.2534016E-1,-4.442289E-3,9.520177E-2],"categories":[],"categories_nodes":[],"categories_segments":[],"categories_sizes":[],"default_left":[0,0,0,0,0,0,0,0,0,0,0,0,0,0,0,0,0],"id":37,"left_children":[1,3,-1,5,7,9,11,13,15,-1,-1,-1,-1,-1,-1,-1,-1],"loss_changes":[4.040809E1,5.1643566E1,0E0,9.358784E0,3.8724827E1,2.2001648E-1,4.866333E0,6.2893867E0,2.423095E1,0E0,0E0,0E0,0E0,0E0,0E0,0E0,0E0],"parents":[2147483647,0,0,1,1,3,3,4,4,5,5,6,6,7,7,8,8],"right_children":[2,4,-1,6,8,10,12,14,16,-1,-1,-1,-1,-1,-1,-1,-1],"split_conditions":[1E0,9.21719E3,-1.0241782E-1,2.0864E2,1E0,1E0,1E0,4.8E1,6.336107E5,1.0136165E-1,5.9611727E-2,-8.31679E-2,7.0835605E-2,-1.7752014E-2,-1.2534016E-1,-4.442289E-3,9.520177E-2],"split_indices":[9,5,0,3,7,7,8,0,1,0,0,0,0,0,0,0,0],"split_type":[0,0,0,0,0,0,0,0,0,0,0,0,0,0,0,0,0],"sum_hessian":[4.4759204E2,4.1303644E2,3.455561E1,6.994298E1,3.4309348E2,6.3332016E1,6.610961E0,3.5454327E1,3.0763913E2,5.676482E1,6.567195E0,4.1348367E0,2.476124E0,7.116195E0,2.833813E1,2.8192892E2,2.57102E1],"tree_param":{"num_deleted":"0","num_feature":"12","num_nodes":"17","size_leaf_vector":"1"}},{"base_weights":[-1.2018667E-2,6.621956E-2,-1.0006394E-1,8.52834E-1,-8.289704E-2,9.7070605E-1,-8.139273E-2,-1.0771357E0,2.7504195E-2,9.9491164E-2,1.563635E-2,-9.340345E-2,-1.3347843E-1,-5.272064E-3,9.668409E-2],"categories":[],"categories_nodes":[],"categories_segments":[],"categories_sizes":[],"default_left":[0,0,0,0,0,0,0,0,0,0,0,0,0,0,0],"id":38,"left_children":[1,3,-1,5,7,9,-1,11,13,-1,-1,-1,-1,-1,-1],"loss_changes":[3.375078E1,4.7516785E1,0E0,1.3471508E1,3.7453644E1,1.0417328E0,0E0,1.0528564E-2,2.3249676E1,0E0,0E0,0E0,0E0,0E0,0E0],"parents":[2147483647,0,0,1,1,3,3,4,4,5,5,7,7,8,8],"right_children":[2,4,-1,6,8,10,-1,12,14,-1,-1,-1,-1,-1,-1],"split_conditions":[1E0,9.21719E3,-1.0006394E-1,1E0,1E0,2.76023E3,-8.139273E-2,2.4230155E6,6.561184E5,9.9491164E-2,1.563635E-2,-9.340345E-2,-1.3347843E-1,-5.272064E-3,9.668409E-2],"split_indices":[9,5,0,10,7,4,0,5,1,0,0,0,0,0,0],"split_type":[0,0,0,0,0,0,0,0,0,0,0,0,0,0,0],"sum_hessian":[4.3449338E2,4.0349435E2,3.0999025E1,6.354817E1,3.399462E2,5.9740944E1,3.8072233E0,3.3100147E1,3.0684604E2,5.780112E1,1.9398235E0,2.4254257E1,8.845891E0,2.835713E2,2.3274767E1],"tree_param":{"num_deleted":"0","num_feature":"12","num_nodes":"15","size_leaf_vector":"1"}},{"base_weights":[-3.6751467E-3,7.235802E-2,-1.0134708E-1,8.376957E-1,-6.317553E-2,9.5044285E-1,-7.905148E-2,-1.0078623E0,3.911073E-2,4.7439616E-2,1.0004246E-1,1.2318753E-2,-1.1686402E-1,-3.8324834E-3,8.819558E-2],"categories":[],"categories_nodes":[],"categories_segments":[],"categories_sizes":[],"default_left":[0,0,0,0,0,0,0,0,0,0,0,0,0,0,0],"id":39,"left_children":[1,3,-1,5,7,9,-1,11,13,-1,-1,-1,-1,-1,-1],"loss_changes":[3.240036E1,4.076613E1,0E0,1.1604366E1,3.234967E1,8.517914E-1,0E0,6.091278E0,1.9787989E1,0E0,0E0,0E0,0E0,0E0,0E0],"parents":[2147483647,0,0,1,1,3,3,4,4,5,5,7,7,8,8],"right_children":[2,4,-1,6,8,10,-1,12,14,-1,-1,-1,-1,-1,-1],"split_conditions":[1E0,9.21719E3,-1.0134708E-1,1E0,1E0,1E0,-7.905148E-2,1.9E1,5.687529E5,4.7439616E-2,1.0004246E-1,1.2318753E-2,-1.1686402E-1,-3.8324834E-3,8.819558E-2],"split_indices":[9,5,0,10,7,8,0,0,1,0,0,0,0,0,0],"split_type":[0,0,0,0,0,0,0,0,0,0,0,0,0,0,0],"sum_hessian":[4.2004572E2,3.9149612E2,2.8549591E1,5.8120064E1,3.3337607E2,5.4745426E1,3.3746376E0,3.1704937E1,3.016711E2,6.198624E0,4.8546803E1,3.975022E0,2.7729916E1,2.7716168E2,2.4509432E1],"tree_param":{"num_deleted":"0","num_feature":"12","num_nodes":"15","size_leaf_vector":"1"}},{"base_weights":[-4.4312384E-3,-2.9599229E-1,3.4726128E-1,1.2536347E-1,-9.42348E-1,4.951418E-1,-8.1276435E-1,3.3281833E-1,-9.820704E-2,-5.797747E-1,-1.2188901E0,3.2421198E-1,9.3393885E-2,-9.412618E-1,5.9290804E-2,-7.807275E-3,6.564469E-2,1.6959673E-2,-8.672967E-2,-4.1883208E-2,-1.2520884E-1,4.5616783E-2,-1.631269E-1,-9.6777916E-2,-2.3498824E-2],"categories":[],"categories_nodes":[],"categories_segments":[],"categories_sizes":[],"default_left":[0,0,0,0,0,0,0,0,0,0,0,0,0,0,0,0,0,0,0,0,0,0,0,0,0],"id":40,"left_children":[1,3,5,7,9,11,13,15,-1,17,19,21,-1,23,-1,-1,-1,-1,-1,-1,-1,-1,-1,-1,-1],"loss_changes":[4.1553474E1,6.045742E1,3.1912863E1,3.1342957E1,8.071693E0,1.1963173E1,4.377823E0,1.5270441E1,0E0,8.720213E0,7.7069855E-1,3.1508392E1,0E0,1.4270592E-1,0E0,0E0,0E0,0E0,0E0,0E0,0E0,0E0,0E0,0E0,0E0],"parents":[2147483647,0,0,1,1,2,2,3,3,4,4,5,5,6,6,7,7,9,9,10,10,11,11,13,13],"right_children":[2,4,6,8,10,12,14,16,-1,18,20,22,-1,24,-1,-1,-1,-1,-1,-1,-1,-1,-1,-1,-1],"split_conditions":[6.408354E4,6.289881E4,2.0864E2,1E0,4.581E3,3.4924338E5,7.0313544E5,1.318914E4,-9.820704E-2,4.8E1,6.531715E4,3.4895297E5,9.3393885E-2,5.41E2,5.9290804E-2,-7.807275E-3,6.564469E-2,1.6959673E-2,-8.672967E-2,-4.1883208E-2,-1.2520884E-1,4.5616783E-2,-1.631269E-1,-9.6777916E-2,-2.3498824E-2],"split_indices":[2,1,3,9,2,2,1,2,0,0,1,1,0,0,0,0,0,0,0,0,0,0,0,0,0],"split_type":[0,0,0,0,0,0,0,0,0,0,0,0,0,0,0,0,0,0,0,0,0,0,0,0,0],"sum_hessian":[4.0323987E2,2.20554E2,1.8268587E2,1.3400374E2,8.6550255E1,1.6253856E2,2.0147316E1,1.13450584E2,2.0553156E1,3.878971E1,4.7760548E1,1.1822416E2,4.4314392E1,1.8762548E1,1.3847684E0,5.0320515E1,6.3130074E1,1.0869798E1,2.7919912E1,2.4453454E0,4.53152E1,1.11468956E2,6.7552004E0,1.772673E1,1.0358174E0],"tree_param":{"num_deleted":"0","num_feature":"12","num_nodes":"25","size_leaf_vector":"1"}},{"base_weights":[-8.784517E-3,-2.117666E-1,3.7971994E-1,1.045994E-1,-9.930226E-1,5.30288E-1,-6.7589825E-1,-2.1892789E-1,4.4273776E-1,-4.9704066E-1,-1.2215234E0,2.9466355E-1,8.9702463E-1,-8.809122E-2,3.3715382E-1,2.3719652E-2,-1.011342E-1,5.836566E-2,-9.166233E-2,2.558627E-1,-8.263915E-2,-1.03552185E-1,-1.5031043E-1,5.0820626E-2,-1.9107744E-1,9.67687E-2,5.2322555E-2,-1.4769589E-2,6.0199704E-2],"categories":[],"categories_nodes":[],"categories_segments":[],"categories_sizes":[],"default_left":[0,0,0,0,0,0,0,0,0,0,0,0,0,0,0,0,0,0,0,0,0,0,0,0,0,0,0,0,0],"id":41,"left_children":[1,3,5,7,9,11,13,15,17,19,21,23,25,-1,27,-1,-1,-1,-1,-1,-1,-1,-1,-1,-1,-1,-1,-1,-1],"loss_changes":[3.0774035E1,6.34497E1,2.1645185E1,2.0152233E1,7.7755737E0,9.912411E0,3.8604999E0,3.434395E1,1.776956E1,2.7289E1,1.0596619E0,3.5440823E1,6.975746E-1,0E0,5.5260444E-1,0E0,0E0,0E0,0E0,0E0,0E0,0E0,0E0,0E0,0E0,0E0,0E0,0E0,0E0],"parents":[2147483647,0,0,1,1,2,2,3,3,4,4,5,5,6,6,7,7,8,8,9,9,10,10,11,11,12,12,14,14],"right_children":[2,4,6,8,10,12,14,16,18,20,22,24,26,-1,28,-1,-1,-1,-1,-1,-1,-1,-1,-1,-1,-1,-1,-1,-1],"split_conditions":[1.1641958E5,1.1679395E5,2.0864E2,2.1673E4,1.09E2,3.3066503E5,3.9815706E5,2.1729E4,2.0864E2,4.513812E4,5.7272E4,3.3479088E5,7.865754E5,-8.809122E-2,9.914439E6,2.3719652E-2,-1.011342E-1,5.836566E-2,-9.166233E-2,2.558627E-1,-8.263915E-2,-1.03552185E-1,-1.5031043E-1,5.0820626E-2,-1.9107744E-1,9.67687E-2,5.2322555E-2,-1.4769589E-2,6.0199704E-2],"split_indices":[2,1,3,2,2,2,1,1,3,4,2,1,4,0,2,0,0,0,0,0,0,0,0,0,0,0,0,0,0],"split_type":[0,0,0,0,0,0,0,0,0,0,0,0,0,0,0,0,0,0,0,0,0,0,0,0,0,0,0,0,0],"sum_hessian":[3.882194E2,2.5529187E2,1.3292754E2,1.8232594E2,7.296593E1,1.1676973E2,1.6157797E1,9.3356224E1,8.896972E1,2.401481E1,4.895112E1,7.219115E1,4.4578583E1,1.3546745E1,2.6110508E0,5.96954E1,3.366082E1,8.1129974E1,7.839741E0,1.6779879E0,2.2336823E1,3.2295483E1,1.6655636E1,6.651989E1,5.6712575E0,3.6155098E1,8.423485E0,1.0786635E0,1.5323873E0],"tree_param":{"num_deleted":"0","num_feature":"12","num_nodes":"29","size_leaf_vector":"1"}},{"base_weights":[-4.939273E-3,-2.6467583E-1,3.0863538E-1,-1.8541679E-1,-9.77903E-2,4.2974767E-1,-7.2645587E-1,3.1375408E-3,-4.401167E-1,2.1673639E-1,8.2126075E-1,-8.864151E-2,2.5198314E-1,-8.995326E-3,6.266882E-2,-7.661631E-2,-2.1800078E-2,4.3821305E-2,-1.3851275E-3,9.245633E-2,5.3565513E-2,-1.9903906E-2,5.5977922E-2],"categories":[],"categories_nodes":[],"categories_segments":[],"categories_sizes":[],"default_left":[0,0,0,0,0,0,0,0,0,0,0,0,0,0,0,0,0,0,0,0,0,0,0],"id":42,"left_children":[1,3,5,7,-1,9,11,13,15,17,19,-1,21,-1,-1,-1,-1,-1,-1,-1,-1,-1,-1],"loss_changes":[3.0377262E1,1.1350029E1,2.1495937E1,8.8773155E0,0E0,1.2490622E1,3.0518723E0,6.2785845E0,5.527149E0,5.0997653E0,1.07341E0,0E0,5.7203835E-1,0E0,0E0,0E0,0E0,0E0,0E0,0E0,0E0,0E0,0E0],"parents":[2147483647,0,0,1,1,2,2,3,3,5,5,6,6,7,7,8,8,9,9,10,10,12,12],"right_children":[2,4,6,8,-1,10,12,14,16,18,20,-1,22,-1,-1,-1,-1,-1,-1,-1,-1,-1,-1],"split_conditions":[6.408354E4,1E0,2.0864E2,3.444901E5,-9.77903E-2,2.645247E5,1E0,1E0,1.09E2,1.9661134E5,3.3563303E5,-8.864151E-2,1.7610214E6,-8.995326E-3,6.266882E-2,-7.661631E-2,-2.1800078E-2,4.3821305E-2,-1.3851275E-3,9.245633E-2,5.3565513E-2,-1.9903906E-2,5.5977922E-2],"split_indices":[2,9,3,4,0,2,8,8,2,4,4,0,2,0,0,0,0,0,0,0,0,0,0],"split_type":[0,0,0,0,0,0,0,0,0,0,0,0,0,0,0,0,0,0,0,0,0,0,0],"sum_hessian":[3.7096765E2,2.029874E2,1.6798026E2,1.8381995E2,1.9167454E1,1.5090788E2,1.7072363E1,1.0619298E2,7.762697E1,9.873988E1,5.2168003E1,1.4754319E1,2.3180442E0,9.314323E1,1.3049751E1,3.0462032E1,4.7164936E1,4.990567E1,4.883421E1,3.6668083E1,1.549992E1,1.0835823E0,1.2344618E0],"tree_param":{"num_deleted":"0","num_feature":"12","num_nodes":"23","size_leaf_vector":"1"}},{"base_weights":[-6.3426537E-3,-1.9306532E-1,4.3581542E-1,8.567202E-2,-1.0274028E0,5.943637E-1,-6.6717184E-1,2.133533E-1,-1.0021352E-1,2.2305526E-1,-1.112854E0,8.6719286E-1,1.3951899E-1,-8.18249E-1,5.4090805E-2,-3.634395E-2,3.571072E-2,9.207257E-2,-7.726E-2,-9.557318E-2,-1.5856655E-1,9.9714726E-2,7.301345E-2,-1.8391165E-1,2.9033327E-2,-7.4641528E-3,-8.828675E-2],"categories":[],"categories_nodes":[],"categories_segments":[],"categories_sizes":[],"default_left":[0,0,0,0,0,0,0,0,0,0,0,0,0,0,0,0,0,0,0,0,0,0,0,0,0,0,0],"id":43,"left_children":[1,3,5,7,9,11,13,15,-1,17,19,21,23,25,-1,-1,-1,-1,-1,-1,-1,-1,-1,-1,-1,-1,-1],"loss_changes":[2.9715933E1,5.89345E1,1.9085852E1,2.6685917E1,7.0272903E0,1.1540058E1,2.9800086E0,1.4341423E1,0E0,4.108928E0,2.9085693E0,3.1471252E-1,1.1403043E1,5.4699993E-1,0E0,0E0,0E0,0E0,0E0,0E0,0E0,0E0,0E0,0E0,0E0,0E0,0E0],"parents":[2147483647,0,0,1,1,2,2,3,3,4,4,5,5,6,6,7,7,9,9,10,10,11,11,12,12,13,13],"right_children":[2,4,6,8,10,12,14,16,-1,18,20,22,24,26,-1,-1,-1,-1,-1,-1,-1,-1,-1,-1,-1,-1,-1],"split_conditions":[1.405234E5,1.3760505E5,2.0864E2,1E0,1.4E1,3.3563303E5,7.0313544E5,2E3,-1.0021352E-1,1.09E2,8.563708E4,2.2273534E5,1E0,1.8E1,5.4090805E-2,-3.634395E-2,3.571072E-2,9.207257E-2,-7.726E-2,-9.557318E-2,-1.5856655E-1,9.9714726E-2,7.301345E-2,-1.8391165E-1,2.9033327E-2,-7.4641528E-3,-8.828675E-2],"split_indices":[2,1,3,9,0,4,1,2,0,2,2,5,7,0,0,0,0,0,0,0,0,0,0,0,0,0,0],"split_type":[0,0,0,0,0,0,0,0,0,0,0,0,0,0,0,0,0,0,0,0,0,0,0,0,0,0,0],"sum_hessian":[3.5790814E2,2.5203677E2,1.05871376E2,1.8959407E2,6.24427E1,9.296877E1,1.2902606E1,1.7039754E2,1.919653E1,3.8911374E0,5.8551563E1,5.754501E1,3.542376E1,1.1755235E1,1.1473715E0,3.3690567E1,1.3670697E2,2.3321924E0,1.5589452E0,4.6215004E1,1.2336559E1,2.6316858E1,3.1228151E1,1.7159866E0,3.370777E1,1.1121465E0,1.0643088E1],"tree_param":{"num_deleted":"0","num_feature":"12","num_nodes":"27","size_leaf_vector":"1"}},{"base_weights":[1.1002712E-2,-1.3407066E-1,5.633957E-1,-2.8658077E-1,2.3835938E-1,2.212229E-1,7.815232E-1,-1.3684075E-2,-9.183424E-1,3.9593962E-1,-7.0153326E-1,6.716281E-1,-1.0704421E-1,8.2339764E-1,-4.836566E-2,1.16718225E-2,-9.908077E-2,-3.436399E-2,-1.17043905E-1,9.7970836E-2,1.317846E-2,-8.3076976E-2,3.2113116E-2,7.84566E-2,-6.0090568E-2,6.1516847E-2,9.791784E-2,-5.2125897E-2,4.5586877E-2],"categories":[],"categories_nodes":[],"categories_segments":[],"categories_sizes":[],"default_left":[0,0,0,0,0,0,0,0,0,0,0,0,0,0,0,0,0,0,0,0,0,0,0,0,0,0,0,0,0],"id":44,"left_children":[1,3,5,7,9,11,13,15,17,19,21,23,-1,25,27,-1,-1,-1,-1,-1,-1,-1,-1,-1,-1,-1,-1,-1,-1],"loss_changes":[2.786872E1,1.5715843E1,5.2256794E0,3.376255E1,1.2212801E1,1.7912363E1,1.5611267E0,1.7677055E1,8.157478E0,1.0611573E1,1.8436885E0,3.708972E0,0E0,7.5127983E-1,9.64256E-1,0E0,0E0,0E0,0E0,0E0,0E0,0E0,0E0,0E0,0E0,0E0,0E0,0E0,0E0],"parents":[2147483647,0,0,1,1,2,2,3,3,4,4,5,5,6,6,7,7,8,8,9,9,10,10,11,11,13,13,14,14],"right_children":[2,4,6,8,10,12,14,16,18,20,22,24,-1,26,28,-1,-1,-1,-1,-1,-1,-1,-1,-1,-1,-1,-1,-1,-1],"split_conditions":[4.06E2,1.203851E5,5.524748E4,1.190417E5,2.0864E2,5.65105E4,2.0864E2,1E0,1.09E2,2.0329827E5,5.3565456E5,1E0,-1.0704421E-1,1.8424869E5,2.3277764E5,1.16718225E-2,-9.908077E-2,-3.436399E-2,-1.17043905E-1,9.7970836E-2,1.317846E-2,-8.3076976E-2,3.2113116E-2,7.84566E-2,-6.0090568E-2,6.1516847E-2,9.791784E-2,-5.2125897E-2,4.5586877E-2],"split_indices":[0,2,2,1,3,1,3,9,2,1,1,9,0,2,1,0,0,0,0,0,0,0,0,0,0,0,0,0,0],"split_type":[0,0,0,0,0,0,0,0,0,0,0,0,0,0,0,0,0,0,0,0,0,0,0,0,0,0,0,0,0],"sum_hessian":[3.4581866E2,2.7448798E2,7.13307E1,1.9490492E2,7.958305E1,2.8553513E1,4.2777187E1,1.3682391E2,5.8081E1,6.865179E1,1.0931262E1,2.1527037E1,7.026476E0,4.072987E1,2.0473194E0,1.21490875E2,1.5333048E1,1.8429825E1,3.9651176E1,2.0543312E1,4.8108475E1,9.8714285E0,1.0598334E0,2.0124447E1,1.40259E0,1.9548586E1,2.1181284E1,1.0390702E0,1.008249E0],"tree_param":{"num_deleted":"0","num_feature":"12","num_nodes":"29","size_leaf_vector":"1"}},{"base_weights":[-9.924209E-3,-1.3934788E-1,5.1527935E-1,3.07378E-1,-2.978643E-1,5.27086E-2,7.2361016E-1,1.5866999E-2,9.752754E-2,-4.0753224E-1,2.6881877E-1,4.985597E-1,-1.23319715E-1,8.507972E-1,4.0847173E-1,3.675822E-2,-2.5451606E-2,-8.142197E-3,-4.9290236E-2,4.1443326E-2,-7.745046E-2,7.895975E-3,5.867634E-2,4.952805E-2,-3.7706263E-2,5.422573E-2,9.204928E-2,-3.4476114E-3,8.5194E-2],"categories":[],"categories_nodes":[],"categories_segments":[],"categories_sizes":[],"default_left":[0,0,0,0,0,0,0,0,0,0,0,0,0,0,0,0,0,0,0,0,0,0,0,0,0,0,0,0,0],"id":45,"left_children":[1,3,5,7,9,11,13,15,-1,17,19,21,23,25,27,-1,-1,-1,-1,-1,-1,-1,-1,-1,-1,-1,-1,-1,-1],"loss_changes":[2.2607738E1,1.8983057E1,6.2990036E0,1.3684162E1,1.2378344E1,1.7487453E0,1.4666233E0,4.848459E0,0E0,4.5758343E0,5.2756157E0,1.8622959E-1,2.7319372E0,1.7442894E-1,2.963694E0,0E0,0E0,0E0,0E0,0E0,0E0,0E0,0E0,0E0,0E0,0E0,0E0,0E0,0E0],"parents":[2147483647,0,0,1,1,2,2,3,3,4,4,5,5,6,6,7,7,9,9,10,10,11,11,12,12,13,13,14,14],"right_children":[2,4,6,8,10,12,14,16,-1,18,20,22,24,26,28,-1,-1,-1,-1,-1,-1,-1,-1,-1,-1,-1,-1,-1,-1],"split_conditions":[4.06E2,1.29E2,3.159395E4,4.8E1,2.3218556E5,5.12E2,4.467892E5,2.9349378E5,9.752754E-2,4.177589E4,1E0,4.41E2,3.022014E4,8.563708E4,5.9E2,3.675822E-2,-2.5451606E-2,-8.142197E-3,-4.9290236E-2,4.1443326E-2,-7.745046E-2,7.895975E-3,5.867634E-2,4.952805E-2,-3.7706263E-2,5.422573E-2,9.204928E-2,-3.4476114E-3,8.5194E-2],"split_indices":[0,0,2,0,2,0,4,5,0,5,10,2,5,2,0,0,0,0,0,0,0,0,0,0,0,0,0,0,0],"split_type":[0,0,0,0,0,0,0,0,0,0,0,0,0,0,0,0,0,0,0,0,0,0,0,0,0,0,0,0,0],"sum_hessian":[3.3053873E2,2.657787E2,6.476003E1,6.9363E1,1.964157E2,2.0498611E1,4.426142E1,4.9000126E1,2.0362877E1,1.6480287E2,3.1612812E1,5.2836685E0,1.5214943E1,3.0323408E1,1.3938011E1,2.1140718E1,2.7859406E1,3.4597103E1,1.3020576E2,2.8270004E1,3.3428092E0,1.2469436E0,4.036725E0,4.1487646E0,1.1066178E1,7.2054634E0,2.3117947E1,7.434497E0,6.503515E0],"tree_param":{"num_deleted":"0","num_feature":"12","num_nodes":"29","size_leaf_vector":"1"}},{"base_weights":[-1.3061452E-2,5.8540136E-2,-8.6429834E-1,-2.0695383E-2,8.995516E-1,-9.450328E-1,1.6155593E-2,-1.24023005E-1,4.2076668E-1,2.1847758E-2,9.323181E-2,-2.7197657E-2,-9.844784E-2,2.8565869E-2,-2.6984766E-2,5.263734E-2,-1.5918195E-2],"categories":[],"categories_nodes":[],"categories_segments":[],"categories_sizes":[],"default_left":[0,0,0,0,0,0,0,0,0,0,0,0,0,0,0,0,0],"id":46,"left_children":[1,3,5,7,9,11,-1,13,15,-1,-1,-1,-1,-1,-1,-1,-1],"loss_changes":[2.0089968E1,2.029062E1,2.2707024E0,1.2778612E1,3.8134956E-1,3.6553192E-1,0E0,1.3629597E1,3.3386278E0,0E0,0E0,0E0,0E0,0E0,0E0,0E0,0E0],"parents":[2147483647,0,0,1,1,2,2,3,3,4,4,5,5,7,7,8,8],"right_children":[2,4,6,8,10,12,-1,14,16,-1,-1,-1,-1,-1,-1,-1,-1],"split_conditions":[2.0864E2,4.388591E5,1E0,4.06E2,4.1E1,1.8E1,1.6155593E-2,1.29E2,1.6661489E6,2.1847758E-2,9.323181E-2,-2.7197657E-2,-9.844784E-2,2.8565869E-2,-2.6984766E-2,5.263734E-2,-1.5918195E-2],"split_indices":[3,2,8,0,0,0,0,0,5,0,0,0,0,0,0,0,0],"split_type":[0,0,0,0,0,0,0,0,0,0,0,0,0,0,0,0,0],"sum_hessian":[3.2778424E2,3.0321097E2,2.4573288E1,2.7799515E2,2.52158E1,2.2853508E1,1.7197804E0,2.2585184E2,5.2143314E1,1.5094106E0,2.3706388E1,1.7022995E0,2.1151209E1,5.9036102E1,1.6681573E2,4.4189022E1,7.9542937E0],"tree_param":{"num_deleted":"0","num_feature":"12","num_nodes":"17","size_leaf_vector":"1"}},{"base_weights":[7.7535273E-3,6.792392E-2,-9.899869E-2,8.52029E-1,-4.7414817E-2,9.5611095E-1,-6.845158E-2,3.921203E-1,-1.9211222E-1,9.804416E-2,3.29474E-2,5.3246617E-2,-9.080862E-2,-8.429688E-2,1.040013E-2],"categories":[],"categories_nodes":[],"categories_segments":[],"categories_sizes":[],"default_left":[0,0,0,0,0,0,0,0,0,0,0,0,0,0,0],"id":47,"left_children":[1,3,-1,5,7,9,-1,11,13,-1,-1,-1,-1,-1,-1],"loss_changes":[1.9390116E1,2.7577991E1,0E0,6.9074116E0,1.7017857E1,2.4163437E-1,0E0,1.2583093E1,3.884262E1,0E0,0E0,0E0,0E0,0E0,0E0],"parents":[2147483647,0,0,1,1,3,3,4,4,5,5,7,7,8,8],"right_children":[2,4,-1,6,8,10,-1,12,14,-1,-1,-1,-1,-1,-1],"split_conditions":[1E0,9.21719E3,-9.899869E-2,1E0,4.087325E4,2.0864E2,-6.845158E-2,2.0864E2,4.222E4,9.804416E-2,3.29474E-2,5.3246617E-2,-9.080862E-2,-8.429688E-2,1.040013E-2],"split_indices":[9,5,0,10,1,3,0,3,2,0,0,0,0,0,0],"split_type":[0,0,0,0,0,0,0,0,0,0,0,0,0,0,0],"sum_hessian":[3.2086313E2,3.0349243E2,1.7370693E1,3.8098816E1,2.6539362E2,3.6035603E1,2.0632136E0,6.530678E1,2.0008685E2,3.4145226E1,1.8903775E0,5.9477215E1,5.829566E0,6.1988827E1,1.3809802E2],"tree_param":{"num_deleted":"0","num_feature":"12","num_nodes":"15","size_leaf_vector":"1"}},{"base_weights":[2.3646444E-2,8.878651E-2,-8.0821395E-1,-7.616735E-2,4.4710955E-1,-9.326822E-1,3.1479526E-1,2.0924035E-1,-8.4593904E-1,9.33679E-2,2.5553316E-1,-2.1824757E-2,-9.772522E-2,9.99201E-4,4.642136E-2,-5.934029E-3,5.5093117E-2,-1.01400195E-2,-1.1048818E-1,-1.477437E-1,5.1137544E-2],"categories":[],"categories_nodes":[],"categories_segments":[],"categories_sizes":[],"default_left":[0,0,0,0,0,0,0,0,0,0,0,0,0,0,0,0,0,0,0,0,0],"id":48,"left_children":[1,3,5,7,9,11,13,15,17,-1,19,-1,-1,-1,-1,-1,-1,-1,-1,-1,-1],"loss_changes":[1.6947634E1,1.7158459E1,3.4687366E0,4.3950928E1,8.288242E0,4.4589424E-1,1.3263342E-1,1.3445518E1,1.0316257E1,0E0,3.0465479E1,0E0,0E0,0E0,0E0,0E0,0E0,0E0,0E0,0E0,0E0],"parents":[2147483647,0,0,1,1,2,2,3,3,4,4,5,5,6,6,7,7,8,8,10,10],"right_children":[2,4,6,8,10,12,14,16,18,-1,20,-1,-1,-1,-1,-1,-1,-1,-1,-1,-1],"split_conditions":[2.0864E2,1.1214E5,3.9815706E5,1.1295885E5,1.7850345E5,1.8E1,3.56E2,2.647848E4,4.8E1,9.33679E-2,1.8424869E5,-2.1824757E-2,-9.772522E-2,9.99201E-4,4.642136E-2,-5.934029E-3,5.5093117E-2,-1.01400195E-2,-1.1048818E-1,-1.477437E-1,5.1137544E-2],"split_indices":[3,2,1,1,1,0,0,2,0,0,2,0,0,0,0,0,0,0,0,0,0],"split_type":[0,0,0,0,0,0,0,0,0,0,0,0,0,0,0,0,0,0,0,0,0],"sum_hessian":[3.1043518E2,2.8871982E2,2.1715368E1,1.9824518E2,9.047465E1,1.9701265E1,2.0141022E0,1.4515451E2,5.309066E1,2.4464804E1,6.600985E1,1.5031571E0,1.8198109E1,1.0135012E0,1.0006009E0,8.1734634E1,6.3419876E1,1.4058839E1,3.9031822E1,7.877321E0,5.8132526E1],"tree_param":{"num_deleted":"0","num_feature":"12","num_nodes":"21","size_leaf_vector":"1"}},{"base_weights":[-6.7726155E-3,-2.0857933E-1,2.751661E-1,1.1692198E-1,-8.905379E-1,4.8093504E-1,-7.0601213E-3,2.5293756E-1,-9.459397E-2,-2.318645E-1,-1.2383646E0,1.5566691E-2,6.731072E-1,7.8743654E-1,-3.7195882E-1,1.4736876E-1,1.5986279E-2,2.4138585E-1,-6.0921658E-2,-1.5334184E-1,-1.0566404E-1,5.6463506E-2,-1.2933932E-1,-7.2769254E-2,7.625055E-2,9.375744E-2,-5.761772E-2,-1.572197E-1,-1.6234444E-2],"categories":[],"categories_nodes":[],"categories_segments":[],"categories_sizes":[],"default_left":[0,0,0,0,0,0,0,0,0,0,0,0,0,0,0,0,0,0,0,0,0,0,0,0,0,0,0,0,0],"id":49,"left_children":[1,3,5,7,9,11,13,15,-1,17,19,21,23,25,27,-1,-1,-1,-1,-1,-1,-1,-1,-1,-1,-1,-1,-1,-1],"loss_changes":[1.7135643E1,3.906345E1,7.300352E0,1.7542034E1,1.2730942E1,6.489626E0,1.5938685E1,1.1910274E1,0E0,2.2303333E1,3.6118698E-1,1.6733019E1,6.993784E0,4.0832977E0,9.219902E0,0E0,0E0,0E0,0E0,0E0,0E0,0E0,0E0,0E0,0E0,0E0,0E0,0E0,0E0],"parents":[2147483647,0,0,1,1,2,2,3,3,4,4,5,5,6,6,7,7,9,9,10,10,11,11,12,12,13,13,14,14],"right_children":[2,4,6,8,10,12,14,16,-1,18,20,22,24,26,28,-1,-1,-1,-1,-1,-1,-1,-1,-1,-1,-1,-1,-1,-1],"split_conditions":[7.295508E4,7.305341E4,3.3563303E5,1E0,1.09E2,1.358453E5,1.454821E5,5.9515E2,-9.459397E-2,3.58397E4,1.1295885E5,1.3305711E5,1.3520038E5,3.4342934E5,1E0,1.4736876E-1,1.5986279E-2,2.4138585E-1,-6.0921658E-2,-1.5334184E-1,-1.0566404E-1,5.6463506E-2,-1.2933932E-1,-7.2769254E-2,7.625055E-2,9.375744E-2,-5.761772E-2,-1.572197E-1,-1.6234444E-2],"split_indices":[2,1,4,9,2,2,1,1,0,4,1,1,1,2,7,0,0,0,0,0,0,0,0,0,0,0,0,0,0],"split_type":[0,0,0,0,0,0,0,0,0,0,0,0,0,0,0,0,0,0,0,0,0,0,0,0,0,0,0,0,0],"sum_hessian":[2.9916016E2,1.7450952E2,1.2465062E2,1.18687904E2,5.5821617E1,7.1683014E1,5.296761E1,1.0589804E2,1.2789864E1,1.9866802E1,3.5954815E1,2.1265945E1,5.041707E1,1.6306149E1,3.666146E1,6.4512577E0,9.944678E1,1.8061985E0,1.8060604E1,1.0869142E1,2.5085672E1,1.5382218E1,5.8837276E0,2.5962355E0,4.782083E1,1.4970308E1,1.3358408E0,4.484289E0,3.217717E1],"tree_param":{"num_deleted":"0","num_feature":"12","num_nodes":"29","size_leaf_vector":"1"}},{"base_weights":[-3.6830906E-2,1.4564494E-2,-9.7639404E-2,7.5362897E-1,-8.478921E-2,8.628854E-1,-6.7363136E-2,-9.7471046E-1,-7.7124904E-3,2.651685E-2,9.6893996E-2,-5.3968605E-2,-1.4963758E-1,-9.401566E-3,8.294214E-2],"categories":[],"categories_nodes":[],"categories_segments":[],"categories_sizes":[],"default_left":[0,0,0,0,0,0,0,0,0,0,0,0,0,0,0],"id":50,"left_children":[1,3,-1,5,7,9,-1,11,13,-1,-1,-1,-1,-1,-1],"loss_changes":[1.4216309E1,2.061195E1,0E0,5.768078E0,1.6974154E1,1.7294369E0,0E0,3.6688728E0,1.6611692E1,0E0,0E0,0E0,0E0,0E0,0E0],"parents":[2147483647,0,0,1,1,3,3,4,4,5,5,7,7,8,8],"right_children":[2,4,-1,6,8,10,-1,12,14,-1,-1,-1,-1,-1,-1],"split_conditions":[1E0,9.21719E3,-9.7639404E-2,1E0,1E0,1E0,-6.7363136E-2,1.5008056E5,3.3066503E5,2.651685E-2,9.6893996E-2,-5.3968605E-2,-1.4963758E-1,-9.401566E-3,8.294214E-2],"split_indices":[9,5,0,10,7,8,0,2,2,0,0,0,0,0,0],"split_type":[0,0,0,0,0,0,0,0,0,0,0,0,0,0,0],"sum_hessian":[2.931047E2,2.7883646E2,1.4268241E1,3.2262135E1,2.4657433E2,3.0335392E1,1.9267422E0,1.8725485E1,2.2784885E2,5.0988555E0,2.5236536E1,1.1320063E1,7.4054227E0,2.0735913E2,2.0489712E1],"tree_param":{"num_deleted":"0","num_feature":"12","num_nodes":"15","size_leaf_vector":"1"}},{"base_weights":[3.416293E-3,-1.0295263E-1,4.5680705E-1,2.7080625E-1,-2.4151668E-1,2.8835014E-1,7.436518E-1,-9.301248E-3,9.753252E-2,-1.9877051E-1,-9.148848E-2,5.515666E-1,7.622611E-2,8.7117754E-2,5.0631773E-1,5.594456E-2,-3.315753E-2,7.023304E-2,-2.8755307E-2,7.191629E-2,-1.2984188E-2,-4.317532E-3,6.5834634E-2,1.474838E-2,7.116705E-2],"categories":[],"categories_nodes":[],"categories_segments":[],"categories_sizes":[],"default_left":[0,0,0,0,0,0,0,0,0,0,0,0,0,0,0,0,0,0,0,0,0,0,0,0,0],"id":51,"left_children":[1,3,5,7,9,11,13,15,-1,17,-1,19,21,-1,23,-1,-1,-1,-1,-1,-1,-1,-1,-1,-1],"loss_changes":[1.3906156E1,1.2162513E1,2.433198E0,1.2569151E1,4.7383375E0,1.9765549E0,1.5331745E-1,8.7142515E0,0E0,1.3163057E1,0E0,1.9175482E0,1.5005577E0,0E0,5.7680154E-1,0E0,0E0,0E0,0E0,0E0,0E0,0E0,0E0,0E0,0E0],"parents":[2147483647,0,0,1,1,2,2,3,3,4,4,5,5,6,6,7,7,9,9,11,11,12,12,14,14],"right_children":[2,4,6,8,10,12,14,16,-1,18,-1,20,22,-1,24,-1,-1,-1,-1,-1,-1,-1,-1,-1,-1],"split_conditions":[4.06E2,1.29E2,6.19E2,4.8E1,1E0,5.12E2,1.3305711E5,4.307162E4,9.753252E-2,9.21719E3,-9.148848E-2,9.565003E5,1E0,8.7117754E-2,2.5328623E5,5.594456E-2,-3.315753E-2,7.023304E-2,-2.8755307E-2,7.191629E-2,-1.2984188E-2,-4.317532E-3,6.5834634E-2,1.474838E-2,7.116705E-2],"split_indices":[0,0,0,0,9,0,1,1,0,5,0,4,8,0,1,0,0,0,0,0,0,0,0,0,0],"split_type":[0,0,0,0,0,0,0,0,0,0,0,0,0,0,0,0,0,0,0,0,0,0,0,0,0],"sum_hessian":[2.8637463E2,2.3258205E2,5.379259E1,6.264656E1,1.6993549E2,3.5153217E1,1.8639374E1,4.5530876E1,1.7115683E1,1.6100961E2,8.925882E0,1.4973267E1,2.0179953E1,1.0387319E1,8.252054E0,1.620192E1,2.9328957E1,1.3821119E1,1.4718849E2,1.1973027E1,3.0002396E0,1.7513506E1,2.666447E0,3.6289742E0,4.62308E0],"tree_param":{"num_deleted":"0","num_feature":"12","num_nodes":"25","size_leaf_vector":"1"}},{"base_weights":[-2.4050567E-2,3.7015434E-2,-8.835664E-1,3.337546E-1,-7.7616036E-2,-9.735197E-2,3.2845695E-2,-3.3219087E-1,5.0027835E-1,6.4937586E-1,-1.5796284E-1,-9.2986375E-2,5.2621376E-2,1.321504E-1,4.0996697E-2,-9.935333E-2,9.5007285E-2,-1.083979E-1,-9.6772835E-3],"categories":[],"categories_nodes":[],"categories_segments":[],"categories_sizes":[],"default_left":[0,0,0,0,0,0,0,0,0,0,0,0,0,0,0,0,0,0,0],"id":52,"left_children":[1,3,5,7,9,-1,-1,11,13,15,17,-1,-1,-1,-1,-1,-1,-1,-1],"loss_changes":[1.47926235E1,8.989568E0,2.3578863E0,8.330256E0,1.1253127E1,0E0,0E0,8.352991E0,3.855668E0,1.0426006E1,9.680944E0,0E0,0E0,0E0,0E0,0E0,0E0,0E0,0E0],"parents":[2147483647,0,0,1,1,2,2,3,3,4,4,7,7,8,8,9,9,10,10],"right_children":[2,4,6,8,10,-1,-1,12,14,16,18,-1,-1,-1,-1,-1,-1,-1,-1],"split_conditions":[2.0864E2,4.087325E4,5.870312E5,1E0,1.310409E4,-9.735197E-2,3.2845695E-2,1E0,8.8431E2,1E0,1E0,-9.2986375E-2,5.2621376E-2,1.321504E-1,4.0996697E-2,-9.935333E-2,9.5007285E-2,-1.083979E-1,-9.6772835E-3],"split_indices":[3,1,1,7,5,0,0,8,1,8,7,0,0,0,0,0,0,0,0],"split_type":[0,0,0,0,0,0,0,0,0,0,0,0,0,0,0,0,0,0,0],"sum_hessian":[2.802099E2,2.625159E2,1.7694027E1,7.261932E1,1.8989656E2,1.6654734E1,1.0392915E0,1.4327468E1,5.829186E1,1.8193794E1,1.7170276E2,8.397428E0,5.9300404E0,4.4246435E0,5.3867214E1,2.4583082E0,1.5735486E1,9.606609E0,1.6209616E2],"tree_param":{"num_deleted":"0","num_feature":"12","num_nodes":"19","size_leaf_vector":"1"}},{"base_weights":[-1.0416223E-2,3.346463E-2,-9.55547E-2,5.940598E-1,-6.196939E-2,1.3686486E-1,9.5231585E-2,-9.0811944E-1,4.7604684E-3,3.697801E-2,-7.863012E-2,2.2369033E-2,-1.1435435E-1,-7.4452795E-3,7.6486506E-2],"categories":[],"categories_nodes":[],"categories_segments":[],"categories_sizes":[],"default_left":[0,0,0,0,0,0,0,0,0,0,0,0,0,0,0],"id":53,"left_children":[1,3,-1,5,7,9,-1,11,13,-1,-1,-1,-1,-1,-1],"loss_changes":[1.1560174E1,1.4299925E1,0E0,6.2375174E0,1.2918842E1,4.21445E0,0E0,4.712124E0,1.2881692E1,0E0,0E0,0E0,0E0,0E0,0E0],"parents":[2147483647,0,0,1,1,3,3,4,4,5,5,7,7,8,8],"right_children":[2,4,-1,6,8,10,-1,12,14,-1,-1,-1,-1,-1,-1],"split_conditions":[1E0,3.381658E4,-9.55547E-2,1E0,1E0,2.0864E2,9.5231585E-2,1.9E1,3.3066503E5,3.697801E-2,-7.863012E-2,2.2369033E-2,-1.1435435E-1,-7.4452795E-3,7.6486506E-2],"split_indices":[9,5,0,8,7,3,0,0,2,0,0,0,0,0,0],"split_type":[0,0,0,0,0,0,0,0,0,0,0,0,0,0,0],"sum_hessian":[2.7696777E2,2.6560095E2,1.1366818E1,3.787749E1,2.2772346E2,1.7248075E1,2.0629416E1,1.57244835E1,2.1199898E2,1.4251786E1,2.996289E0,2.7161813E0,1.3008302E1,1.9280783E2,1.9191156E1],"tree_param":{"num_deleted":"0","num_feature":"12","num_nodes":"15","size_leaf_vector":"1"}},{"base_weights":[-2.6730496E-2,-1.3302913E-1,4.4213617E-1,1.9449905E-1,-2.506488E-1,-1.4814542E-1,6.626543E-1,-5.1982213E-2,8.872132E-1,-6.7132527E-1,-8.71957E-2,4.816177E-2,-2.827483E-1,4.8105848E-1,9.0600654E-2,2.817328E-2,-4.5692477E-2,2.5064722E-2,9.728087E-2,-2.9684821E-2,-7.287472E-2,-2.2677684E-3,-8.197205E-2,-5.5269696E-2,3.266139E-2,6.1585207E-2,-7.513786E-3],"categories":[],"categories_nodes":[],"categories_segments":[],"categories_sizes":[],"default_left":[0,0,0,0,0,0,0,0,0,0,0,0,0,0,0,0,0,0,0,0,0,0,0,0,0,0,0],"id":54,"left_children":[1,3,5,7,9,11,13,15,17,19,21,-1,23,25,-1,-1,-1,-1,-1,-1,-1,-1,-1,-1,-1,-1,-1],"loss_changes":[1.376517E1,8.714712E0,6.744089E0,1.0290758E1,1.1352339E1,1.382558E0,1.214859E0,6.236727E0,6.171694E-1,7.789993E-1,5.6840553E0,0E0,2.2769113E0,1.8098192E0,0E0,0E0,0E0,0E0,0E0,0E0,0E0,0E0,0E0,0E0,0E0,0E0,0E0],"parents":[2147483647,0,0,1,1,2,2,3,3,4,4,5,5,6,6,7,7,8,8,9,9,10,10,12,12,13,13],"right_children":[2,4,6,8,10,12,14,16,18,20,22,-1,24,26,-1,-1,-1,-1,-1,-1,-1,-1,-1,-1,-1,-1,-1],"split_conditions":[4.06E2,1.29E2,2.1061E4,4.8E1,1.318914E4,4.68E2,1.8424869E5,2.8145788E5,1E0,9.21719E3,2.0864E2,4.816177E-2,6.25E2,1.6887611E6,9.0600654E-2,2.817328E-2,-4.5692477E-2,2.5064722E-2,9.728087E-2,-2.9684821E-2,-7.287472E-2,-2.2677684E-3,-8.197205E-2,-5.5269696E-2,3.266139E-2,6.1585207E-2,-7.513786E-3],"split_indices":[0,0,2,0,2,0,2,4,7,5,3,0,0,5,0,0,0,0,0,0,0,0,0,0,0,0,0],"split_type":[0,0,0,0,0,0,0,0,0,0,0,0,0,0,0,0,0,0,0,0,0,0,0,0,0,0,0],"sum_hessian":[2.7400772E2,2.2395113E2,5.0056583E1,5.900102E1,1.649501E2,1.3703453E1,3.635313E1,4.419908E1,1.4801939E1,4.5287437E1,1.19662674E2,1.9591526E0,1.1744301E1,2.2522816E1,1.3830314E1,2.4397364E1,1.9801716E1,2.220032E0,1.2581907E1,6.8413205E0,3.8446117E1,1.10923874E2,8.738798E0,8.20324E0,3.5410604E0,1.8042885E1,4.47993E0],"tree_param":{"num_deleted":"0","num_feature":"12","num_nodes":"27","size_leaf_vector":"1"}},{"base_weights":[1.12108905E-2,5.380065E-2,-9.486198E-2,3.138353E-3,6.896478E-1,4.4782743E-2,-7.419125E-1,2.3552093E-1,8.33352E-2,-1.4826518E-3,8.794124E-2,-8.513164E-2,1.1195038E-2,-7.0375674E-3,3.2131393E-2],"categories":[],"categories_nodes":[],"categories_segments":[],"categories_sizes":[],"default_left":[0,0,0,0,0,0,0,0,0,0,0,0,0,0,0],"id":55,"left_children":[1,3,-1,5,7,9,11,13,-1,-1,-1,-1,-1,-1,-1],"loss_changes":[1.0903829E1,8.217192E0,0E0,7.396839E0,1.0322409E0,1.1242371E1,1.274221E0,1.7795011E-1,0E0,0E0,0E0,0E0,0E0,0E0,0E0],"parents":[2147483647,0,0,1,1,3,3,4,4,5,5,6,6,7,7],"right_children":[2,4,-1,6,8,10,12,14,-1,-1,-1,-1,-1,-1,-1],"split_conditions":[1E0,6.04E2,-9.486198E-2,2.0864E2,3.1062E4,4.388591E5,1E0,6.31E2,8.33352E-2,-1.4826518E-3,8.794124E-2,-8.513164E-2,1.1195038E-2,-7.0375674E-3,3.2131393E-2],"split_indices":[9,0,0,3,2,2,8,0,0,0,0,0,0,0,0],"split_type":[0,0,0,0,0,0,0,0,0,0,0,0,0,0,0],"sum_hessian":[2.6448605E2,2.5415271E2,1.0333357E1,2.3632779E2,1.7824917E1,2.2470772E2,1.1620075E1,4.919016E0,1.2905901E1,2.1064563E2,1.4062078E1,1.03029585E1,1.317117E0,1.1167884E0,3.8022277E0],"tree_param":{"num_deleted":"0","num_feature":"12","num_nodes":"15","size_leaf_vector":"1"}},{"base_weights":[-2.3500409E-2,1.4756434E-2,-9.406892E-2,7.8112954E-1,-6.528022E-2,8.852906E-1,-5.7709035E-2,-7.922892E-1,-1.1585408E-2,9.6901685E-2,-2.4972484E-2,2.6012806E-2,-1.22721545E-1,-9.374186E-3,5.5077065E-2],"categories":[],"categories_nodes":[],"categories_segments":[],"categories_sizes":[],"default_left":[0,0,0,0,0,0,0,0,0,0,0,0,0,0,0],"id":56,"left_children":[1,3,-1,5,7,9,-1,11,13,-1,-1,-1,-1,-1,-1],"loss_changes":[9.233823E0,1.5583234E1,0E0,3.909377E0,8.977128E0,2.3997192E0,0E0,7.55945E0,1.000263E1,0E0,0E0,0E0,0E0,0E0,0E0],"parents":[2147483647,0,0,1,1,3,3,4,4,5,5,7,7,8,8],"right_children":[2,4,-1,6,8,10,-1,12,14,-1,-1,-1,-1,-1,-1],"split_conditions":[1E0,9.21719E3,-9.406892E-2,1E0,1E0,2.76023E3,-5.7709035E-2,4.8E1,2.3794362E5,9.6901685E-2,-2.4972484E-2,2.6012806E-2,-1.22721545E-1,-9.374186E-3,5.5077065E-2],"split_indices":[9,5,0,10,7,4,0,0,2,0,0,0,0,0,0],"split_type":[0,0,0,0,0,0,0,0,0,0,0,0,0,0,0],"sum_hessian":[2.6176065E2,2.5222404E2,9.5366E0,2.3022036E1,2.2920201E2,2.170564E1,1.3163944E0,1.4817868E1,2.1438414E2,2.035069E1,1.3549496E0,4.450537E0,1.0367331E1,1.8778352E2,2.6600613E1],"tree_param":{"num_deleted":"0","num_feature":"12","num_nodes":"15","size_leaf_vector":"1"}},{"base_weights":[-1.9711878E-2,2.5038683E-1,-1.3531399E-1,-1.5549739E-1,6.639883E-1,-7.7455676E-1,1.04542956E-1,4.289104E-1,-1.0297937E0,9.290537E-1,-8.613195E-2,-1.5773752E-1,-1.1814992E0,9.743979E-1,4.926073E-3,-3.5290837E-2,7.6526046E-2,-1.1533648E-1,2.456017E-2,5.9006196E-2,1.0797123E-1,2.4388018E-1,-5.9928585E-2,-4.2994083E-3,-1.21950924E-1,2.4244599E-2,1.0192698E-1,-1.4401208E-1,1.4424937E-2],"categories":[],"categories_nodes":[],"categories_segments":[],"categories_sizes":[],"default_left":[0,0,0,0,0,0,0,0,0,0,0,0,0,0,0,0,0,0,0,0,0,0,0,0,0,0,0,0,0],"id":57,"left_children":[1,3,5,7,9,11,13,15,17,19,-1,21,23,25,27,-1,-1,-1,-1,-1,-1,-1,-1,-1,-1,-1,-1,-1,-1],"loss_changes":[8.136574E0,1.3219059E1,2.8043728E1,2.1003416E1,1.6522171E1,1.2333612E1,1.1562849E1,6.798409E0,2.8705559E0,1.079443E0,0E0,2.5515759E1,1.2413826E0,2.0324135E-1,2.452483E1,0E0,0E0,0E0,0E0,0E0,0E0,0E0,0E0,0E0,0E0,0E0,0E0,0E0,0E0],"parents":[2147483647,0,0,1,1,2,2,3,3,4,4,5,5,6,6,7,7,8,8,9,9,11,11,12,12,13,13,14,14],"right_children":[2,4,6,8,10,12,14,16,18,20,-1,22,24,26,28,-1,-1,-1,-1,-1,-1,-1,-1,-1,-1,-1,-1,-1,-1],"split_conditions":[4.087325E4,1.1399E4,4.222E4,1.027108E4,2.0864E2,1.09E2,6.142447E4,1.09E2,3.603511E4,2.1061E4,-8.613195E-2,4.513812E4,1.2E1,1E0,6.1772E4,-3.5290837E-2,7.6526046E-2,-1.1533648E-1,2.456017E-2,5.9006196E-2,1.0797123E-1,2.4388018E-1,-5.9928585E-2,-4.2994083E-3,-1.21950924E-1,2.4244599E-2,1.0192698E-1,-1.4401208E-1,1.4424937E-2],"split_indices":[1,2,2,1,3,2,1,2,1,2,0,4,0,7,2,0,0,0,0,0,0,0,0,0,0,0,0,0,0],"split_type":[0,0,0,0,0,0,0,0,0,0,0,0,0,0,0,0,0,0,0,0,0,0,0,0,0,0,0,0,0],"sum_hessian":[2.585023E2,7.712875E1,1.8137352E2,3.9242504E1,3.788625E1,4.8878414E1,1.324951E2,2.3825916E1,1.5416587E1,3.261021E1,5.27604E0,1.9980612E1,2.8897802E1,1.2712045E1,1.19783066E2,7.152131E0,1.6673786E1,1.4142065E1,1.2745225E0,1.154646E1,2.1063751E1,2.246529E0,1.7734083E1,1.0024596E0,2.7895342E1,1.1041529E0,1.1607892E1,9.712234E0,1.1007083E2],"tree_param":{"num_deleted":"0","num_feature":"12","num_nodes":"29","size_leaf_vector":"1"}},{"base_weights":[2.8618025E-2,7.3721156E-2,-7.510345E-1,2.0916915E-2,8.733571E-1,-9.274759E-2,-2.7297345E-1,-2.9142848E-1,9.805352E-2,4.3498687E-3,9.3437836E-2,2.8813362E-2,-6.920194E-2,2.2406362E-2,-4.9469374E-2,8.246012E-4,3.7995137E-2],"categories":[],"categories_nodes":[],"categories_segments":[],"categories_sizes":[],"default_left":[0,0,0,0,0,0,0,0,0,0,0,0,0,0,0,0,0],"id":58,"left_children":[1,3,5,7,9,-1,11,13,15,-1,-1,-1,-1,-1,-1,-1,-1],"loss_changes":[8.809982E0,9.957431E0,9.027662E-1,5.39283E0,6.9920444E-1,0E0,1.4012482E0,4.757541E0,4.5360947E0,0E0,0E0,0E0,0E0,0E0,0E0,0E0,0E0],"parents":[2147483647,0,0,1,1,2,2,3,3,4,4,6,6,7,7,8,8],"right_children":[2,4,6,8,10,-1,12,14,16,-1,-1,-1,-1,-1,-1,-1,-1],"split_conditions":[2.0864E2,4.388591E5,2.9876762E5,2E3,4.1E1,-9.274759E-2,1E0,6.8E1,3.82E2,4.3498687E-3,9.3437836E-2,2.8813362E-2,-6.920194E-2,2.2406362E-2,-4.9469374E-2,8.246012E-4,3.7995137E-2],"split_indices":[3,2,3,2,0,0,10,0,0,0,0,0,0,0,0,0,0],"split_type":[0,0,0,0,0,0,0,0,0,0,0,0,0,0,0,0,0],"sum_hessian":[2.4795982E2,2.3525565E2,1.2704165E1,2.2164539E2,1.3610271E1,8.592713E0,4.1114526E0,4.3346497E1,1.7829889E2,1.0495641E0,1.2560707E1,1.8913373E0,2.2201154E0,1.2229493E1,3.1117004E1,1.3600076E2,4.2298115E1],"tree_param":{"num_deleted":"0","num_feature":"12","num_nodes":"17","size_leaf_vector":"1"}},{"base_weights":[-1.2634709E-2,2.0667195E-2,-9.217656E-2,7.6657957E-1,-6.053128E-2,8.50583E-1,-5.201621E-2,-2.4074532E-2,-7.4069965E-1,9.217441E-2,-1.5699366E-3,-6.171856E-3,6.026662E-2,3.1930793E-2,-1.3213067E-1],"categories":[],"categories_nodes":[],"categories_segments":[],"categories_sizes":[],"default_left":[0,0,0,0,0,0,0,0,0,0,0,0,0,0,0],"id":59,"left_children":[1,3,-1,5,7,9,-1,11,13,-1,-1,-1,-1,-1,-1],"loss_changes":[7.499257E0,1.4541074E1,0E0,2.9898329E0,5.3568425E0,1.4016438E0,0E0,4.9152064E0,7.1875577E0,0E0,0E0,0E0,0E0,0E0,0E0],"parents":[2147483647,0,0,1,1,3,3,4,4,5,5,7,7,8,8],"right_children":[2,4,-1,6,8,10,-1,12,14,-1,-1,-1,-1,-1,-1],"split_conditions":[1E0,1.734821E4,-9.217656E-2,1E0,1E0,2.76023E3,-5.201621E-2,6.19E2,4.8E1,9.217441E-2,-1.5699366E-3,-6.171856E-3,6.026662E-2,3.1930793E-2,-1.3213067E-1],"split_indices":[9,5,0,10,8,4,0,0,0,0,0,0,0,0,0],"split_type":[0,0,0,0,0,0,0,0,0,0,0,0,0,0,0],"sum_hessian":[2.4606891E2,2.3831653E2,7.7523828E0,2.2567177E1,2.1574934E2,2.1502382E1,1.0647944E0,2.0575629E2,9.993058E0,1.981098E1,1.6914029E0,1.9494858E2,1.0807704E1,3.6957724E0,6.2972856E0],"tree_param":{"num_deleted":"0","num_feature":"12","num_nodes":"15","size_leaf_vector":"1"}},{"base_weights":[8.449469E-3,1.2555932E-1,-2.3139711E-2,-4.990921E-1,6.0514964E-2,2.5855005E-1,-8.500954E-1,5.028543E-1,-8.65332E-2,-3.8228378E-2,6.849525E-2,-9.171028E-2,-3.2904793E-2,-3.52531E-2,6.815492E-2,-1.125706E-1,1.41953295E-2],"categories":[],"categories_nodes":[],"categories_segments":[],"categories_sizes":[],"default_left":[0,0,0,0,0,0,0,0,0,0,0,0,0,0,0,0,0],"id":60,"left_children":[1,-1,3,5,7,9,11,13,15,-1,-1,-1,-1,-1,-1,-1,-1],"loss_changes":[9.585309E0,0E0,9.488699E0,9.692436E0,1.3243599E1,3.552996E0,5.562687E-1,8.001876E0,3.6525375E1,0E0,0E0,0E0,0E0,0E0,0E0,0E0,0E0],"parents":[2147483647,0,0,2,2,3,3,4,4,5,5,6,6,7,7,8,8],"right_children":[2,-1,4,6,8,10,12,14,16,-1,-1,-1,-1,-1,-1,-1,-1],"split_conditions":[5.9515E2,1.2555932E-1,1.139E3,4.8E1,3.996622E4,9.247453E4,2.8721797E5,1E0,4.222E4,-3.8228378E-2,6.849525E-2,-9.171028E-2,-3.2904793E-2,-3.52531E-2,6.815492E-2,-1.125706E-1,1.41953295E-2],"split_indices":[1,0,2,0,1,1,1,7,2,0,0,0,0,0,0,0,0],"split_type":[0,0,0,0,0,0,0,0,0,0,0,0,0,0,0,0,0],"sum_hessian":[2.4156766E2,5.010367E0,2.365573E2,3.462016E1,2.0193713E2,1.1044327E1,2.3575832E1,4.977825E1,1.5215889E2,4.4539776E0,6.590349E0,2.0215927E1,3.3599064E0,8.433858E0,4.1344395E1,2.6717772E1,1.2544111E2],